103 100
grita -0.001590213 -0.0040857918 0.0009898444 0.0011773366 -0.0002406857 0.0010123852 -0.0051254663 -0.00048387254 0.002443357 0.0014765834 0.0020418519 2.7925917e-05 0.0015069267 -0.0027307381 0.0007918797 0.0018055813 -0.0016316149 -0.0020924425 0.0043080854 -0.0038642923 -0.00079353596 -0.00063206523 -0.0021216285 -0.0032254474 0.0014168017 0.0036928616 -0.0048834495 0.0005505488 -0.0013110728 0.0019014025 0.00410268 -0.0013554343 -0.0038721657 -0.003119442 -0.0039673895 -0.003030359 -0.0050847232 -0.00364532 -0.0015094389 0.0030782935 0.006007998 -0.0031918446 -0.00015595721 -0.0028916784 0.0014754212 0.0017026401 0.0004973149 0.0010993554 -0.0012727223 0.0049056658 -0.0016674749 0.0035674504 0.003572672 0.003964179 0.003651605 0.0030093435 -0.0038184098 -0.0056896624 0.004631638 -0.0019701181 0.0036514103 -0.004872473 0.00251275 0.004638951 0.0018676686 0.0013602138 0.0011419342 -0.0030229194 -0.0026238675 -0.0036258313 -0.003514131 -0.0033809072 -0.004814929 0.002711495 0.002496663 -0.0033786802 -0.0045017647 0.0038455077 -0.0032490117 0.0043890257 -0.0029713323 0.0045720725 -0.00032622128 0.0040123705 0.0046314676 -0.0038755997 0.0010864383 0.0032285724 0.0014538534 -0.0045276084 0.0034680243 -0.0041373456 -0.0013815174 -0.0013710436 -0.0029810858 0.0041767866 -0.0055154557 0.000885875 -0.0046661748 0.0024171455
hermano 0.0025947862 0.0022188486 -0.0012175195 -0.00083203707 0.002607536 0.0016105531 -0.00063332816 0.0008177229 -0.0026350599 0.0039759935 -0.002170289 -0.0005327248 -0.0005071488 0.0017697649 0.0024187383 -0.005689769 -0.002800105 0.0037199368 -0.0021198872 -0.000628177 0.0033643527 0.0011889049 0.003983873 -0.0019151879 -0.0009898765 -0.0034045782 0.0017828362 8.7144166e-05 0.005184496 0.002045192 -0.0046830354 -0.0012862281 -0.0007209222 0.002929826 0.0044518723 -0.0019991824 0.004355346 0.0044045113 0.0014447839 0.0039406894 0.0044147316 -0.003961868 0.0012645624 0.0014570847 -0.0026315707 0.0008308575 0.003600662 0.0022087698 0.0022401507 -0.00415398 0.0022963104 0.0027831232 2.8708848e-05 -0.0047199246 -0.0055290773 -0.003558638 -0.0026981658 0.0033121204 0.005548675 0.004147007 -0.0022282656 3.17881e-05 -0.002075437 0.0014680397 0.004374545 -0.0026624303 0.0007589735 -0.00438735 0.0015895594 0.0044427766 -0.0024811157 0.0021750003 0.0038301602 0.0024434514 -0.00023398602 -0.0014894288 0.0031137422 0.0039010397 0.0018272317 -0.0035631454 0.00051345007 -0.0031308348 -0.003777226 0.00179548 -0.0018167204 -0.0018325256 0.0025488324 0.0024905896 0.0047083674 0.0025345872 -0.0040816385 -0.0014425123 -0.0016599422 -0.0047833384 0.004892055 0.0018685047 -0.0011400464 -0.0027649426 0.002273147 -0.0047909548
griton -0.0029629213 -0.0042583947 3.793765e-05 0.0010591558 -0.0030912128 -0.0029052945 -0.0024146778 0.0035429539 -0.001925859 0.0009042091 0.0031809686 0.0021368598 0.0051654517 -0.0023112765 -0.0044830167 0.0012673918 0.0021503 -0.0025908786 0.00027597303 0.0027582708 -0.0028457432 -0.0031546971 0.0009731904 0.0025957664 -0.0032385245 0.00011323668 0.0037432576 -0.0017096658 0.0017765431 -0.0025148033 0.0025936356 -0.0022932417 -0.0032319552 0.00037672604 0.002859631 0.000865497 -0.0033985002 -0.0011627489 0.0047423067 -0.0036806904 0.005301964 0.0028825775 -0.0036614297 -0.004928922 -0.004231026 -0.0036053204 0.0026967751 0.0030045337 0.0024309128 -0.0024374202 0.003125457 -0.002924432 -0.004021238 0.0027183187 0.0040111253 0.004151298 0.0011018554 -0.0037337665 0.004259064 0.004772182 0.0019053823 0.0023709545 0.0005264718 -0.0014464498 0.004308797 -0.003239085 -0.00037463906 0.0018134702 0.0010956669 -0.0034816966 0.0035117643 0.0012023712 0.0023761075 0.0043927445 -0.00016828664 -0.003727314 -0.0033171985 0.0032954055 0.0037581692 -0.00055502495 -0.0022664673 0.0029455845 -0.0007384759 0.00054662453 0.0016388851 -0.0012010363 -0.0022292654 0.0018330285 0.00483774 0.0028576995 0.0028538879 -0.0012930824 -0.0017176103 -0.0013784672 -0.00091549347 0.0016784158 0.0031652115 -0.0008351458 0.0028770452 -0.0032467092
hermanito -0.0022068787 0.0038530796 0.0005060327 0.0005783664 0.0007729923 -0.0035730612 0.0019482385 0.0015999912 0.0048529916 0.0043251924 -0.00043848972 -0.0009696414 -0.004369518 0.003351398 -0.0007166255 -0.0060796523 0.00068991305 0.0006036506 0.0038285495 0.0019054321 -0.0025166636 -0.0042046523 0.0027732123 0.00269448 -0.0016177532 0.0011424321 -0.0025042498 -0.0012761017 -0.00066534913 0.002115956 0.0015394624 0.0034055654 -0.0025528292 -0.0038808447 -0.0024860615 0.00096996967 0.0008715414 -0.0019368883 -0.00017846045 -0.00021808072 -0.0007751513 0.0012364041 0.0026211157 -0.006154831 -0.0010813534 0.0010523959 0.0030175378 0.0018133535 -0.0017676097 0.00063295785 -0.0031610331 0.003973143 0.0019592124 -0.0034092178 0.0012162835 -0.0017225012 -0.00025910864 -0.0031791837 0.0032445868 -0.0010366335 0.0028921564 0.0024207048 0.0023790651 0.004647748 -0.00063291664 -0.0026890778 -0.0014392578 -0.0019785701 0.003745646 -0.00093924947 0.0022146343 -0.00042438653 -0.0009529713 0.0024768878 -0.0009006774 0.0032972186 0.004607842 0.0045368928 0.004624391 -0.0045086127 0.0035533197 0.0033431593 0.0010169514 -0.0040408187 0.0024406502 0.0010379846 0.0021503314 0.002786852 0.00038927392 -0.00024507422 -0.0021363008 0.0023850317 -0.00081721955 -0.002608042 -0.0043016872 -0.0024687753 0.000913394 -0.002510502 -0.0011491172 -0.004392636
gritando -0.0048872093 0.0005929699 0.002019882 0.002425918 -0.0012070598 -0.0025645792 0.0045550694 0.0034265297 0.0029825324 0.0031595875 -0.00087006064 -0.0041515147 -0.0004964785 0.0010134 -0.00044876192 -0.0008627194 -0.0007192818 -0.004462836 -0.0029261634 -0.0029270297 -0.0025562956 -0.002463934 0.0016355782 0.0041485317 -0.003467933 -0.0019394071 -0.0023141473 0.0012410042 0.0011151122 -0.0040633497 -0.0027616392 0.0016071382 0.0030621486 -0.0009146067 -0.0010708724 -6.2223146e-05 -0.0038425706 -0.0046901098 0.0027734837 0.00552115 -0.0037558428 -0.0027023638 -0.0050419234 0.002207771 0.0005754616 0.0025372822 -0.0043291776 -0.00034209943 -0.004246532 -0.0032298232 0.0016538968 -0.00020197664 -0.0018403068 -0.0020915978 0.0023469855 -0.00401965 0.004862701 -0.005140051 -3.7019345e-06 -0.004261891 -0.0023503574 0.0033747873 0.0059547764 -0.0047513843 0.0050307806 0.0033409868 0.0023850636 4.3267773e-05 0.0026565436 -0.0014379744 0.004838108 -0.002697932 -0.0014241448 -0.0027763776 -0.0020366525 0.00027077072 -0.00243299 0.005766031 0.002761094 0.00035192602 -0.0029426133 -0.0016920125 -0.0037080152 -0.004321256 0.0008156911 0.0025684384 -0.0037493464 0.0031758253 -0.0035366763 0.0034814763 0.002213185 -0.00075080205 -0.0009980375 -0.0014040212 0.0042146207 -0.004382574 -0.0014523927 0.0032447746 0.0008674535 -0.00073645666
llora -0.0007935352 -0.00096604426 -0.0015385568 -0.004831819 0.0018505428 0.0037608263 0.0030399275 0.0008193054 -0.0014091331 0.0014405478 -0.001917083 0.0040281527 -0.003182281 0.00508658 -0.000436423 -0.0035744198 0.0013541478 0.004622683 0.0035338323 -0.004883077 0.0007133539 0.0014247872 0.0046414253 -0.0040376373 -0.0045954054 -0.003191271 0.003934779 0.0021248222 0.0013741732 0.002391596 0.00181085 0.0011054174 -0.00068783853 -0.0011011468 0.0011721223 0.0030111212 0.0044742473 -0.0023823662 -0.0033671756 0.005349654 0.00090197066 0.00089837617 -0.0013488691 0.0028679147 0.003969565 0.0037148828 0.0011398903 -0.0025259666 -0.0010697611 -0.0020911908 -0.0006181541 -0.0036640966 -0.0031223972 -9.7865195e-05 -0.0028776724 -0.002209864 0.0012464421 0.0029131682 0.002852834 -2.1381013e-05 -0.0018442553 -0.0032942935 0.0018793567 -0.0037691966 0.0024313526 -0.0021353038 -0.003542257 -0.0013507196 -0.0005626107 0.0026799352 0.00450265 0.0009048557 -0.00015885894 0.00028550613 0.0005625291 0.00029369144 -0.00039547746 0.0040526306 0.004633534 0.0009586541 -0.0023119021 -0.0024887763 0.0022308186 -0.004495698 -0.0015825497 -0.003480987 -0.003329218 0.0016994583 0.001074213 0.0028079576 0.0034023123 0.0038549097 -0.00014647872 -0.0024461427 0.0030759599 -0.004029391 0.0005544133 0.004209383 0.0015188124 0.00031905668
pelota 0.002522063 0.0038325295 -0.0019720923 -0.0030693242 -0.0038025551 -0.00036278152 0.0012200404 0.0011029339 -0.00447451 0.0030644024 -0.0029889932 0.002647694 -0.002442511 0.0013604157 -0.0019480407 -0.003029914 0.00331892 0.0045501427 -0.0004496893 -0.0009251135 0.00078318146 0.0044785473 -0.005178446 0.0034310867 -0.0011847112 -0.005145475 -0.0042841863 -9.4463285e-05 -0.0020893984 -0.0021812497 -0.004133077 -0.002425101 -0.0024416759 0.0037058673 0.004523553 0.0017952868 -0.0034196419 0.0014938592 -0.00010067676 0.004558251 -0.0013810631 0.0041492083 0.0041831 -0.005965323 -0.0034194812 -0.003430056 -0.004488257 -0.0006236748 -0.0030523827 -0.00059057225 0.00038581097 -0.0045922967 -0.0035210387 0.0037199664 -0.004308524 0.0012621449 -0.0019883933 -0.0054454524 0.0053885523 -0.0034362082 0.004179695 -0.0005604477 0.0058570877 4.7125395e-05 -0.0037165352 -0.0030190144 0.0015362392 0.00094995275 0.0045554005 0.0035237079 -0.0014081241 -0.0016542139 0.00032811472 -0.0042905053 -0.0004514614 0.0001711612 0.0005540296 -0.0018535593 -0.0038363482 -0.002640543 0.0022835694 -0.00010740585 -0.0051771775 0.00325066 0.0025580837 -0.0019475152 -0.0006373512 -0.0034932517 -0.0020458621 0.0047105374 -0.0011424423 -0.0017794706 0.00020990314 0.0023923137 -0.0005017253 -0.0014750075 -0.00023404125 0.0023149357 -0.002735625 0.002067487
gritar -0.0009981963 0.0005769982 0.0032128044 0.0035366316 0.000573762 -0.00037797666 -0.00048725813 0.0005275701 0.0029356095 -0.0032483416 0.0012478714 -0.0040505566 0.0015216271 0.0013526087 0.0039256676 -0.0011938642 -0.0036023664 7.1357135e-05 -0.0022455952 -7.979655e-05 -0.0033703274 -0.0025634018 0.0009418238 -0.00020219132 -0.0048082145 -0.00029279344 -0.00145503 0.0012172522 0.0038121778 -0.003531689 0.003391927 0.00015915977 -0.00053094956 0.0029109658 -0.0037037537 -0.005135583 -0.001131667 0.0011628916 0.0031982418 0.0030335593 -0.00040788355 -0.0036160438 -0.0019736066 -0.0062689013 -0.0022015984 0.0016840535 0.00020974208 0.0022708902 0.00038692637 0.0020709848 -0.00094803266 -0.001916521 -0.004657052 0.0034749696 -0.00028252412 0.0022208448 0.004946698 -0.0004842272 0.0058538667 -0.0050733234 -0.0004995531 -0.0009302543 -0.0025448562 -0.004627028 -0.0039397012 0.0011646987 -0.00097395014 0.0047864 -0.004845652 -0.00067973696 0.0043279883 0.0029359013 0.0039780764 -0.0016687979 0.003237981 -0.004275054 0.0013032921 0.002200044 0.004386498 -0.0013722195 -0.002745409 -0.0024805786 0.0031702395 -0.0044480553 0.0044489126 0.0034436183 0.0046729012 0.0018345481 -0.0044843606 0.0042131837 0.0014210598 -0.0026498234 -0.00011388534 0.004107467 -0.00391188 0.0037559322 0.0005477766 0.001803052 -0.0016914817 -0.0048057437
nino -0.0012212618 -0.0023357703 -0.0018753129 0.003123736 0.0022395349 0.0010485214 -0.0002625324 0.0030470192 0.0039398647 0.0004922672 -0.0045216335 0.005411801 -0.0039439215 0.0039247074 -0.005446544 -0.00047529832 0.0045896405 -0.0030678816 -0.0024110011 7.182252e-05 -0.005232455 -0.0026282247 0.0043148543 -0.00061286916 0.001992482 -0.0050490326 -0.001864 -0.0023985642 0.002237767 0.0045768134 -0.0039889063 0.0032026449 0.0031224138 -0.004039396 0.0008069609 -0.0017266078 0.0037334769 -5.9223e-05 0.0005807426 0.0030789955 0.000348028 0.004592045 -0.0013586028 0.0025281073 -0.00018149066 0.0031361515 -0.0032104985 0.00023051069 0.0040473677 -0.0031440542 0.0029514153 0.003439098 0.0044679786 0.0004660919 0.00077254145 0.00015370663 0.0027660495 0.0013572822 0.0024125206 -0.0035623042 0.0025673697 -0.0023645558 0.00081569364 -0.0017367332 0.004761103 0.0047875578 -0.0021599524 0.0040288386 0.0031198724 -0.0008218486 -0.0005081041 0.0015877583 -0.002755352 -0.004325614 0.0027514799 0.0009324956 0.00018906832 -0.0038508722 0.0038651715 0.0032605387 -0.0017461966 0.0013795733 0.0018736303 0.0019420278 -0.0035702721 -0.0036458755 0.001792075 -0.004597945 -0.0001929614 0.00077647413 -0.00022721205 -0.00036665946 -0.0030863285 0.004912559 -0.004049191 0.0018522273 0.0017296477 0.0029534115 -0.0015411155 -0.0031558527
persona 0.004265034 0.0012570338 0.003224508 0.0034845714 0.0008693437 0.0039613615 -0.0011131765 -0.003578189 0.0029492793 0.0016078837 0.005285048 0.0037572903 -0.0039057038 -0.00327284 0.000906371 -0.004003698 0.004318939 0.0030063023 0.00033733726 0.0025390037 -0.0057312627 -0.0024385436 -0.00046596583 0.0041535655 0.0014776874 0.0007743202 -0.001265224 0.0029327935 3.3830936e-05 -0.0048926356 -0.0003072098 0.0024111674 -0.0008858894 0.0040616044 0.0007111969 0.002414124 -0.0005421909 0.004848343 0.004591039 0.0041134576 0.0050399574 -0.002652081 -0.0054171127 0.0019850396 -0.0034833092 -0.001541931 0.004201988 0.0051926007 0.003101634 -0.0031731967 -0.0026457515 -0.00042280013 -0.0016404147 0.00021999466 0.0004351462 -0.0036934398 -0.002776449 -0.0041295527 0.0016667319 -0.0040585934 -0.0030864077 -0.0016039353 -0.002298684 2.2303186e-05 -0.0042121704 0.00061971333 0.005198493 -0.00066301465 0.00019306279 -0.003740622 0.0019785366 0.00028690818 -0.00049812667 0.00039285034 -0.0018806494 0.003847622 0.0029556986 0.00063750416 -0.0013746723 0.0032166026 0.00053114066 -0.0030281534 -0.00278509 -0.0050242627 -0.00079212 0.00017027475 0.0013766115 0.0023377286 -0.0050145914 0.004162108 -0.0014607332 -0.0015447346 0.0005232395 0.0013473564 0.0029190439 -0.0044837035 -0.00044438086 0.0051342174 -0.0003871351 -0.00080543576
pasa 0.00087837165 0.0046308422 -0.0016751912 -0.005739247 0.00092698546 -0.0011936903 0.00093314826 0.001351171 0.0013386359 -0.0042965286 0.00495231 0.0054784208 0.0053079543 0.0017988685 -0.0019194137 -0.0050407457 0.003661012 -0.003894082 -0.0049854424 0.0008053727 0.001176207 0.0050279377 0.002854322 0.002111424 0.0018893435 -0.0038860717 0.00402458 -0.004274456 5.7492398e-05 -0.0042425394 0.0037130064 -0.001167885 0.0034817054 0.0016246974 0.0034421438 0.0018483077 0.0031787998 -0.0027092898 0.0037431957 -0.0007889021 0.0053390455 -0.0019831567 0.0025149584 -0.0016422448 0.00047208098 -0.004453825 -0.0010698756 0.005087841 4.2806867e-05 4.4469758e-05 -0.003161139 0.0046287077 -0.003805854 0.0022107475 -0.004430723 0.0021413206 -0.004411742 -0.0030765506 0.0052736085 -0.0040349136 -0.0010038993 -0.0013088393 -0.0010292198 -0.0037187159 -0.0038267276 0.00016603016 0.001254011 0.0016580025 0.0031084616 0.00014374615 -0.0011936065 -0.0033173743 -0.004410392 0.0017322246 0.0015354923 0.0044224644 -0.001397163 0.0017663536 0.0019549849 -0.0029615017 0.0028123131 -0.0037690494 -0.0053772647 0.00373235 -0.003769539 0.0043236837 -0.0043206215 -0.0033650748 -0.00032636753 -0.0024067913 0.0037099381 -0.00067195744 0.002828496 0.003985502 -0.003953774 -0.0001453651 -0.0012004166 -0.0016540863 0.004925085 -0.0037098667
gordito -0.0053637396 -0.0029144066 -0.0005999765 0.0015805713 -0.0024689978 0.0049658683 2.6744772e-05 0.0033675942 0.0010096914 -0.0005631224 8.438033e-06 0.0028977676 0.0016947578 0.0055741887 0.00020906545 -0.0057074516 0.0058621517 -0.0008121907 0.00030693653 -0.0047176876 -0.005778022 -0.0030815292 0.0012347767 -0.0044341898 0.0006545007 -0.0012484724 -0.004743109 -0.0039762696 0.0045776125 0.0027898331 1.4325154e-05 -0.004962163 0.0029074322 -0.0010698185 -0.0036681644 -0.0038502724 -0.0019202251 0.00045252696 -0.0035602679 0.0055634403 0.006091493 0.0022907006 -0.0038466936 -0.00529389 -0.00046663437 0.002386299 0.0035752591 0.00086999394 0.0024124712 0.004398422 -0.0010052768 0.0050103134 -0.0043311487 -0.00038934205 0.00020396501 0.0037546617 0.00230826 -0.0053680693 0.00027169645 -0.0037199107 -0.0019726465 -0.0029633727 -0.0017862323 -0.0023996804 0.004867817 0.0022868197 -0.0030790125 -0.00015582443 0.0030219206 0.0056613223 0.0032910928 0.002519123 -0.0027368169 0.00053794705 0.0019961623 0.00020274453 0.0036576425 -0.0014690023 -0.003914365 0.001207838 -0.006095228 -0.0034913372 -0.004956003 -0.0027747967 0.003724037 0.003770785 0.0033842905 0.0014724768 0.002714832 0.003536618 0.0051636696 -0.0029508779 -0.0010441717 -0.0049452083 0.00087216444 0.0021927054 -0.0043229777 0.00027314867 0.0024322872 0.0013366954
gritos -0.0026937171 0.0045861774 -0.0011023135 -0.0064663645 0.00025019617 0.00027119962 0.0010310025 0.0045227874 -0.0026289176 -0.003369884 0.00021189584 0.00016117335 -0.0030075666 -8.695858e-06 0.002808681 -0.0053383834 0.0019715456 -0.0026111165 -0.0004096879 -0.0014487847 0.00029934585 0.0004341738 -0.0013246076 -0.0038654655 -0.0015583157 0.0028185975 0.002393148 -0.0049185306 0.004232191 0.0018438456 -0.00022534859 -0.0051529957 -0.0021744857 -0.00018778042 -0.00410899 -0.004410285 0.003780367 -0.0005492592 -0.0020036418 -0.0022241874 0.0007124731 0.004741276 -0.00014381482 -0.0019719133 -0.00061853573 -0.002132924 -0.0025038852 0.0017661791 -0.00335262 -0.0034119142 -0.0035381655 0.005071535 0.004049296 0.0017769288 0.0023341784 -0.0010224278 -0.0018471577 0.002108206 0.0028128338 -0.0042290157 0.0009890939 0.0050485246 0.003374608 0.0033993516 -0.0014227842 0.0013659745 0.0023070471 -0.000896121 -0.0031355524 0.00023357366 0.0007631155 0.00012509363 -0.0017806562 -0.0041849404 -0.00130414 0.000870024 -0.0020331969 0.0060440972 -0.003931047 0.00421534 -0.0010097357 -0.0018479351 -0.0019933083 0.003408334 0.0048973756 -0.00064286846 -0.0021894204 0.0028608162 0.0039056118 -0.0013823509 0.0030331842 0.00435584 0.0022489757 -0.0028347117 0.0044464525 0.0024877726 -0.004335889 0.00072493055 -0.0024023429 -0.0022285546
gordo 0.0044126427 0.0034591437 -0.0038108926 -0.0044644056 0.0031630085 0.0046327016 -0.00471667 -0.0006548956 0.0047309697 0.0043975827 0.0012823112 0.0034639137 -5.3805827e-05 -0.00028797414 0.0043957164 -0.0059151812 0.00207261 0.0035743737 2.8982178e-05 0.0011996047 -0.0018827048 0.001310497 -0.005150577 0.002797874 -0.0033406091 -3.6154954e-05 0.0033826327 0.004014815 -0.0024920325 -0.00025063215 0.0015517018 -0.003977242 1.44888145e-05 -0.0013515184 0.0002370896 0.0030171145 -0.0051838895 0.0033284645 -0.0040414426 0.00017575982 0.001280437 -0.0037376017 -0.00043806052 -0.0050007827 -0.003776335 -0.0054012523 0.0030291027 -0.0011300795 0.002853693 0.004633856 -0.004568193 0.0024735588 0.001918528 -0.0018894232 -0.0004976986 0.0027048457 -0.0021356386 -0.0026218102 0.0016161245 0.0032438084 0.0011724472 -0.0007525389 0.0037608547 0.0029490015 -0.000605973 0.0013943524 0.004100125 0.00021413519 0.0012524031 0.0013499927 0.0022019576 -0.0043002046 0.003378496 0.0032938814 -0.0028080738 0.0052024527 -0.0012974463 0.000757433 -0.0022533776 -0.0048748273 -0.00032392 0.002000624 -9.6298056e-05 -0.004407745 0.00022249535 0.001226887 0.0044390624 0.0024247558 0.003808615 0.0012576374 0.0043204403 -0.0022191366 0.00066231267 0.0019774486 0.0026027837 0.0023783264 0.002740335 -0.004539126 0.0031145678 0.00037660927
gritan -0.0009016806 -0.002232924 -0.0044578253 -0.0037151673 0.003918334 0.00014232656 0.0026654676 0.0002000265 -0.0030261881 0.0009524118 -4.067534e-05 0.0038519704 0.00025970698 -0.0028862266 -0.0037395598 -9.228015e-06 0.002556241 0.0029093267 0.0011192674 -0.005184702 0.0011715532 9.713937e-05 -0.00056944013 -0.002321978 -0.0037218933 0.0019319602 -0.003302647 -0.0057421955 -0.0039151646 -0.005216392 0.0016627896 0.00025569386 -0.0051104384 0.002907495 -0.004454016 -0.0007893162 -0.0005581419 0.0034854878 -0.0023015274 0.0011250023 0.0048160185 -0.0017159678 -0.00068647746 0.0008183923 0.0039159474 -0.0039547165 0.0024028963 -0.0019561504 0.0055171233 0.0034779285 -0.00072156166 0.003718644 -0.002066822 -0.00316651 -0.0025288642 0.00050249667 -0.004657435 0.0016522451 0.00032099365 -0.0018597207 -0.0025516062 0.001404294 0.005282567 0.00059366936 0.0011878508 0.003974549 0.0044494965 0.0022395616 0.002837573 0.0034194489 0.003261091 -0.00046805295 -0.0060412535 0.0024883454 -0.0047742566 -0.00052469753 0.0026023677 0.0063213287 -0.0025719434 -0.0010883402 0.0030883024 0.0022440061 0.0034008613 0.002590294 -0.0006605652 0.0038138486 0.0016057864 -0.003219798 -0.00265198 -0.0016834271 -0.0017052556 -0.0007826333 0.00077597826 -0.002177143 0.0022651642 -0.0013149059 -0.0053042374 0.0015236669 0.0030774048 -0.0029987274
refiere -0.0009263815 -0.0035394768 -0.0020816175 -0.0031564978 -0.0010695617 0.0033559103 0.00254471 -0.0006574966 0.0025760378 -0.00068421185 -0.0008049631 0.0044086436 -0.0041486593 -0.001717122 -0.0019719987 -0.0041181385 0.0013987147 0.0011738264 -0.0017846253 0.0023152693 0.00313026 0.0011589272 -0.002597123 -0.0026173124 0.0028302423 -0.004249274 -0.0014934842 -0.0048234044 0.0046876706 -0.0030135456 0.0026475603 -0.0054974826 0.00030791416 -0.0031151525 -0.0010958589 -0.0034739433 -0.003523083 -0.002925915 0.004328765 -0.0020321398 0.0038829441 -0.0006284066 -0.003587243 0.000102941136 0.0018844764 -0.00026718574 4.4465785e-05 -0.0022892386 0.0012781653 -0.0021207288 0.00080843753 -0.0024321175 -0.00063989544 0.002600347 -0.0004851867 -0.0033016303 -0.0003161058 -0.0052160956 0.0041194353 -0.0015433165 -0.0016969389 -0.0018344646 -0.0014860592 -0.0030165592 -0.0023234806 -0.0014462352 0.004221295 -0.0041183936 -5.7700352e-05 0.005024955 0.003629466 0.0021363376 -0.0018744874 -0.0035600387 -0.0010271828 -0.0033549047 -0.0025419614 0.003252438 0.004344237 0.004433626 -0.0027096933 -0.0033546009 -0.0014108433 -0.0004886048 0.0052521597 -0.0013406787 -0.0034284713 -0.002753138 -0.003725675 -0.00016819086 0.001260527 -0.0030383002 0.002269818 0.0019157775 -0.0010535402 -0.0041244314 -0.0037035185 0.0005251821 -0.001785962 0.0016597621
ruidoso 0.0029258279 0.0043272837 -0.0035729571 0.0036037192 0.0037907714 0.0018038886 0.0029513887 0.00020513964 0.00080964435 -0.00421214 0.0051589585 0.0049396213 0.002957796 0.0016809718 0.0019360731 -0.0026528283 -0.00080570485 -0.001373453 0.0016469011 -0.001828713 -0.0036923178 0.001729206 -0.0022609718 0.0008044902 0.0006602644 0.0032966556 0.0018543884 0.00048013567 0.002852233 0.0028879296 -0.0024315254 -0.0015691537 0.0019380166 0.004967718 0.004170015 0.0003240671 -0.0045719165 0.0020537872 0.0013475677 -0.004090828 0.0005612496 -0.0011651423 -0.0051578474 -0.003537149 -0.0037314685 -0.004171263 -0.00062463654 -0.0003380228 0.0041743275 -0.0033484288 0.0014486621 -0.0020661654 0.0012370059 0.0045052012 -0.00059477316 -0.0002584957 -0.00050627254 0.00047712383 0.0021349902 0.0034609605 -0.0012990717 0.0013839238 0.0031067526 0.003480073 -0.0047907634 0.005502176 0.0018048038 0.005202208 -0.002978628 0.0017109334 0.0037223496 0.0005625123 0.0024753232 -0.0030465166 -0.001566241 0.0014693739 -0.004963686 0.004706069 0.003752044 -7.6346034e-05 -0.0007802425 0.001999675 0.0008080099 0.002253144 0.00014662664 -0.0033075486 -0.000358571 0.0021022167 0.0038437804 -0.004040406 -0.0038730279 -0.0012294316 0.0044661597 -0.0050180056 -0.004088306 0.00088097376 -0.0026915416 0.0010489329 0.0017397864 0.0005715876
alguien -0.0015517335 -0.004059915 0.00081665703 0.0008383695 -0.002706946 0.0016080077 0.0015026494 0.0034684017 -0.0032097863 0.0049966904 0.0026705551 -0.0024952511 0.0005557517 0.0012517637 0.003693918 0.00054710533 0.0034937367 0.003024602 0.0029315567 0.0010470243 -0.0011249003 -0.0032384582 -0.0039660726 0.0030513522 -0.0022328054 -0.0041318177 -0.0041527445 -0.0028932418 -0.004028284 0.0041584885 -0.002612234 -0.0012758374 0.0028223945 0.0038273106 -0.0034631495 -0.005694201 0.00042821825 -0.0034020203 -0.004058253 -0.0021687176 -0.0020868266 0.0024548671 -0.0029288975 -0.005442056 -0.0018270414 -0.0037587364 -0.000757711 0.0004651263 0.0051437276 0.003044843 0.0023138346 0.0044769966 -0.0032279226 -0.004096543 8.502673e-05 0.0009997438 0.0039406223 0.00030623228 0.005094109 0.0030005693 0.0033727086 -0.0030706583 -0.0019547353 -0.0040068617 0.0033019385 0.0053644474 0.0010988795 0.0015848948 -0.004955882 -0.0021014672 0.00021307616 -0.00065591425 0.004019073 -0.0032073893 -0.0010098419 0.0052906354 0.0024878634 0.002646359 0.0040657953 0.002549271 0.0033363337 -0.004344457 -0.003590809 -0.005230053 -0.0010357782 0.0016337076 0.00486039 -0.004231451 -0.0047315536 0.0027561358 0.0050943512 -0.0028734244 0.0029547273 0.0042624134 -0.0007236331 -0.003666221 0.0031684255 -0.0046517164 -0.0017558389 -9.7985794e-05
escandaloso 0.003742473 -0.004244552 -0.0028151204 -0.0009288354 0.0040324526 -0.0013803705 0.0026068152 0.0033543457 0.00016823417 0.0007767172 -0.004123521 -0.003104492 0.0041906424 0.003748276 0.0030120602 0.001995222 -0.004231714 0.0023316864 -0.0034332064 -0.0026961775 0.0019348869 0.0004597556 -0.0024108852 -0.0041368413 -0.0010813753 -0.004332773 0.0037284289 -0.0046891314 -0.0019647072 0.00294176 -0.0012631856 -0.0022454972 0.00049019716 -0.0017577152 -0.0014785614 0.002466566 0.0044664466 -0.002096443 -0.004080648 0.00493567 4.2743926e-05 -0.0026004717 -0.00529822 0.0028252278 0.001990644 0.0017511706 0.0027322439 0.0023030308 -0.002254763 0.0022603224 0.00016683187 0.003814067 0.0038261716 -0.0017497732 -0.0037469685 0.0002236073 -0.0026495932 -0.0034107503 -0.0030182889 -0.00035057962 0.0013332767 -0.0017219282 -0.0018948772 0.0017138222 -0.0043728314 -0.0023441082 0.00088881666 -0.0020165055 -0.0008217556 0.0022506954 -0.0018615915 -0.0044227806 0.0034729454 -0.0036783474 0.0030210705 -0.004280477 -0.0039153644 -0.002987323 0.0027234894 -0.0033510865 -0.0030988508 -0.003269052 -0.002133018 0.0017264124 0.003485969 -0.00056866254 -0.0010426517 0.0027700148 0.0017021676 0.0030987726 -0.0045343563 0.004081242 -0.0008064279 -0.00051099254 -0.004292389 0.0023970918 0.00037325267 0.0046864445 0.00038196534 0.00027576627
gritona 0.0012036808 -0.0020089664 0.0023434784 -0.006045333 -0.00090739736 0.004349166 0.0036067788 0.0022881115 0.00074964465 -0.0034199997 0.00023780167 -1.3854702e-05 0.003438616 0.0022508225 -0.0024759527 -7.3979965e-05 0.00036110452 -0.00096607755 0.0031384751 0.001758724 -0.00016482711 0.0017900908 0.0006273542 0.0015831598 0.0035155767 -0.00093981717 -0.003025005 -0.004314521 0.0011285957 0.0034972078 -0.0006148399 0.004027446 -0.0028657336 -0.00084502617 -0.004230337 0.0037738658 0.0032785975 0.0033214488 0.0011223728 -0.0031701198 0.0017773814 0.00048823786 -0.00090235105 -0.0058339583 -0.0030089968 -0.002252201 -0.0008681145 -0.002510017 0.000586766 0.0026924193 -0.00092806964 0.0023794484 -0.0014233725 -0.003917992 -0.0031213562 -0.0026617518 -7.5513875e-05 -0.0030894068 0.00085295714 -0.0053466316 -0.0027534016 0.0028395872 0.0048789657 0.0019768588 0.0029443307 0.0058872793 -0.0014394308 -0.0028194191 0.0046329265 0.00041034428 0.003169484 0.0051692366 0.003512131 -0.0040386873 -0.0032786904 -0.003105325 0.0018592178 0.005273978 0.0044848006 -0.00010942069 -0.0010015697 -0.0019854272 0.0034040827 0.003477117 -0.0038445368 0.0008534032 0.0017095519 -0.0051126634 7.786499e-06 0.0015908211 -0.0019010535 0.0040675546 0.0017419503 0.0019135982 -0.001972746 0.0041735163 0.0032862367 0.0046663443 -0.0011822935 -0.004599171
rato -0.0013198655 0.00039380247 -0.0002148817 0.0031145564 -0.0015012127 0.0023732656 0.004407713 -0.0041584857 -0.00046491568 0.0008869537 0.00031058386 0.0051826164 0.0056401226 0.0021066037 -0.0028238138 0.003251858 0.0044574114 0.004082046 0.0008778805 0.0031438123 0.0011467411 -0.0025313778 -0.0031483253 -0.004118461 -0.0049511227 -0.00044876142 0.0023650622 0.00018093681 -0.0043038814 -0.0014671203 -0.0048913537 0.0034990145 -0.0035031543 0.004022178 -0.0042018234 -0.004826132 -0.00071701396 0.00016492902 -0.003766659 0.0059492635 0.0056685694 -0.0018895717 0.0041283504 -0.003820397 -0.0034848012 -0.0011702806 -0.0019848845 0.0019079869 0.0044098566 0.0040704287 -0.001619231 -0.000114331524 0.004484062 -0.0022599846 -0.0036826017 0.00073811476 -0.0010781483 -0.00088298717 0.0021638498 0.0010454045 0.004754316 0.0017513644 0.0028828797 0.00064683356 0.004049582 0.0030523897 0.0022173137 -0.0024156075 0.00134394 -0.0008109098 0.0012251389 0.0045823706 -0.0039314847 0.001353996 0.0022568447 0.0011565629 0.0027490933 -0.0027742528 0.0034983414 0.004243806 -0.0014832009 0.00064707996 0.002255922 0.00056604773 -0.0008391781 0.004551061 0.0014246849 -0.0034159198 0.0010106107 0.004312336 -0.00085763715 -0.0042917486 0.0017695698 0.004795357 0.00015034416 -0.0029126927 0.001166029 0.0023653393 0.00067548564 0.0030872761
deja -0.0034628012 -0.0051198276 0.002925398 -0.0021298178 -0.0034381119 -0.0010117274 -0.00018683726 -0.0042779204 0.0023812423 -0.003927004 -0.00039803542 -0.0019440546 0.005456446 -0.00217216 -0.0012514074 -0.0068143257 -0.00021889863 0.0023578615 -0.0044564893 0.0031383322 -0.0048460183 0.0023154763 -0.00085658784 0.004352597 0.00017409022 -0.004571445 -0.002868825 -0.005479335 -0.00077522785 -0.000247701 0.0028276322 -0.0053626234 0.004336924 0.0024479537 0.0033125621 -0.00404491 -0.0049332893 0.0009726799 -0.0029298845 -0.0013856374 0.006114633 0.0025546944 0.0012329047 0.001066002 0.0018305277 -0.0046361005 -0.0022179172 0.0034029307 -0.0035280094 0.0015959615 0.004038583 -0.0022587075 -0.00085241924 -0.00045050864 -0.00079074205 0.0049321284 -0.0029474427 -0.005922897 0.003488336 0.004461315 0.00090131955 0.0034505147 0.006253239 0.0010329627 0.0037687947 -0.0018117767 -0.002793554 -0.0010477373 -0.004732801 0.0019503097 -0.0027122067 -0.00018581284 -0.0055217184 0.002954052 0.0028205249 0.0013555133 0.003216051 0.0038582932 0.0015895666 -0.00023569589 -0.005068354 -0.004836084 0.0014334533 -0.0039819637 0.0056315097 0.0047355285 -0.001817393 -0.0030646706 0.0019746576 0.0036400764 0.004703553 -0.004503435 -0.0049123713 -7.511463e-05 -0.0027462405 0.0035777995 -0.0033911045 0.0019884966 0.0045045195 -0.0035725143
travieso -0.0035913328 0.0024003359 0.0030170337 -0.0032054754 3.5005505e-05 -0.0036789365 0.004531374 0.00012025314 -0.0010596341 -0.0008509536 -0.0021736454 0.0015314317 -0.0008237928 0.00366966 0.00092100323 0.0017150468 0.0045724185 0.0037217932 -0.00019795248 -0.003546258 -0.005050657 0.0006371375 -0.0048400816 -0.0010903629 -0.0037961097 -0.0033648852 -0.0014949123 -0.0035212568 0.0049757375 -0.0047778487 0.00294739 -0.00014230463 0.002497511 0.0035116244 -0.004268695 -0.0048242565 -0.0029626256 0.0036522236 0.0034180384 -0.0011496582 0.005618827 -0.0022818784 0.004226303 0.0032481356 0.0011836272 -0.0035332337 -0.004088043 0.0018900704 -0.0011248391 -0.0043973485 -0.00037468036 -0.004512037 -0.0013156607 -0.0015760564 0.0023654443 0.00022150332 0.0005097358 -0.00064580794 -0.0018827551 0.0028733828 -0.002615848 0.0023233749 -0.0022111044 -0.0042263228 0.0010538438 0.0019479182 -0.0013337258 -0.0029578812 -0.004287348 0.005356691 -0.001828308 0.0007159791 -0.004603794 0.001218084 0.00039279865 -0.001238909 0.0039718836 0.0023768477 0.0009523743 0.0026883828 0.0042550988 -0.00027829967 -0.004121137 0.0027614122 -0.001350903 0.0039762557 -0.0013769119 0.00053869147 -0.00480942 0.0048724418 0.001905709 -0.0006554177 -0.004987115 0.0048681065 -0.0022801124 0.0028141416 -0.0017331397 0.0015664926 0.0050646607 -0.0017075869
ruido 0.0011296978 0.0015809921 -0.0033062808 -0.0003849229 -0.0023495713 0.000254497 0.0012043258 -0.0018512377 -0.0023338983 0.004660155 -0.0011965694 -0.0027083545 0.0029135924 0.0035152857 -0.0023135273 -6.577877e-05 0.0050195493 0.0040519303 -0.0023543502 -0.0019273537 -0.0049432716 0.004993495 0.0041891094 0.0010967954 -0.002876664 -0.0011031058 0.00019726939 -0.005218683 -0.0003922927 0.004565603 -0.00078715634 0.0037337265 -0.0022383141 0.0045045167 0.002485858 0.002995036 -0.00393203 -0.004058542 -0.0032085686 -0.0005244729 0.0014364851 0.005052694 -0.0038360374 0.0019809492 0.003469604 -0.0006286509 -0.0013181125 -0.0044902894 -0.0021781095 -0.0013949119 -0.0038173306 -0.0018008096 0.00221302 -0.0006064595 0.0031276986 0.00337372 -0.0032560003 -0.0031630045 0.004578222 -7.318321e-05 0.0002880291 -0.00026970787 0.005097468 -7.50221e-05 0.0029017136 -0.0014273574 0.0037414145 -0.0020278515 -0.0023007586 -0.0016188278 -0.0031254273 -0.00030193228 -0.0011074728 -0.0038124328 0.0031215975 0.004062998 0.0026549106 0.0047315904 -0.00042151028 0.0039927787 -0.0007297898 0.00014918955 0.0015282867 0.0015579121 0.0019896026 0.00061987527 -0.0033078801 0.0035395282 0.0013716146 -0.001256405 -0.0033151256 -0.001928347 0.0037815063 -0.0032688666 0.00075134577 -0.0038558857 0.0011608227 0.0006636931 0.0027159771 0.0048855017
niño -0.004382001 0.0038761173 -0.0004570665 0.0018700191 0.004835122 -0.000840018 -0.0037587932 -0.0048611304 -0.0023039675 0.0024626453 0.0038150998 0.004349357 0.0036459407 0.0032454734 -0.0018154477 -4.1026397e-06 0.0044850265 0.0016161766 -0.003854575 -6.911923e-05 -0.006133524 -0.0025649478 -0.00366236 0.0017522135 -0.0017071365 -0.0034880964 -0.0006258893 -0.00033162843 0.0032981292 0.001864436 0.002526091 0.0039607794 -0.003257238 0.0008307443 0.0030046361 0.0012809798 -0.0002652456 0.00031735664 0.004948089 9.050202e-05 0.0006507846 -0.0036941627 -0.0045472933 0.0017016698 -0.00068220776 0.0033732455 0.004044222 0.0018500317 0.0023993999 0.0025576733 -0.003479272 0.0005740519 -0.0036368375 0.00079737825 -0.00072770286 0.004616908 -0.00027189057 -8.886122e-05 0.005729455 0.0032006803 -0.0017901177 0.0018194541 0.0042199544 0.0024224622 0.004211729 -0.00065072556 -0.0027114574 0.0034098304 -0.0036828627 0.0023518128 -0.002540474 0.0024284814 -0.0021370063 0.0013224224 0.0036654095 0.003955031 -0.004676918 0.0009310197 -0.0014379099 0.0037665535 0.004214984 0.0040291734 -0.001156303 0.0041793236 -0.0017456866 0.0033847876 0.0006282937 -0.00036258757 -0.0032626013 -0.0038364101 0.0033747365 -7.815043e-05 -0.0015285873 0.0006691253 1.8220231e-05 -0.0041067414 -0.004695688 -0.0033052315 0.0022065237 0.0031161548
bebé -0.0011875203 -0.000995454 0.0041500865 -0.00594641 -0.003431354 -0.0013130533 -0.0023320336 -0.0028231705 0.004623233 0.001445195 0.0053333836 0.0043809945 0.0012498009 0.00466383 0.0039245402 -0.00566603 -0.0010101221 0.0033815475 -0.0027372018 0.004460259 -0.0061831553 0.0030790798 -0.0005383932 0.0047347397 -0.004799187 0.00043722347 -0.002860138 0.0028410263 0.0045812097 -0.00030226295 -0.0021065006 -0.005828473 0.0017824974 -0.0020946716 -0.0038102132 -0.006310226 -0.0031033081 0.0034153422 -0.0006194759 -0.0014898779 0.00013853732 0.0025555794 0.0021311135 -0.0053125652 -0.0028463511 -0.004271604 0.004519876 -0.0023371691 -0.003206135 -0.0032768273 0.0032804639 0.004466589 0.001203351 0.002799509 0.0029302603 -0.0027669563 0.00035498108 0.0033513221 0.006198488 0.0038863337 -0.0040719165 0.0006108318 0.0010350159 0.0007474452 -0.0014697969 0.00032738186 -0.003329779 0.0006326057 0.0015826715 -0.0023750803 -0.0027427606 0.004207702 0.0020228638 -0.0035017468 0.0017456126 -0.00316328 -0.0025753477 0.0053482843 -0.0049361195 -0.0037082785 0.00019095818 -0.0020643559 -0.0023046264 0.0006018116 3.924407e-05 -0.0026467035 -0.0041565634 -0.0033641579 0.0022452385 0.0033080017 -0.0035120866 0.0014166131 -0.0031336376 -0.0022682115 0.0034481804 0.00504981 -9.996745e-05 0.005442823 -0.004081095 -0.0007114921
fuerte -0.001454546 0.0037352932 -0.0032432196 -0.005315314 -0.0013149285 0.0048352643 0.0011553809 0.0011953894 0.0020170514 0.0006762654 0.0033926822 0.0017876469 0.001684875 -0.0036006544 -0.00048362146 -0.0011775993 -0.0037013448 0.0015593127 -0.0023529106 -0.0001713341 -0.0051127537 0.0027166137 -0.0033858616 0.0050433893 0.0036071618 -0.003129777 -0.0036405846 0.0029206967 0.0027494787 0.0044693663 0.0015216707 -0.0040849326 0.00031607176 -0.002058951 -0.0008972859 -0.0033442033 0.00096264103 0.0033895152 -0.0028280679 0.00183138 -0.0031666574 -0.0014971636 0.0032967124 0.0023040867 -0.0004881971 -0.0022948796 -0.0010073391 -0.0007313841 0.00048762403 0.0027374914 0.0022708804 -0.00023566486 -0.004429711 0.0021452266 0.0032626006 0.0011128994 -0.00440627 -0.0027723918 -0.00037399647 0.0012718902 0.00091731705 -0.00064010377 0.0044325134 0.0004134456 -0.004797269 -0.0032671634 0.0042794268 -0.0039624297 -0.0009919857 0.0035901275 -0.0045874673 -0.0038808684 -0.005327931 -0.0038652427 -0.0021265408 -0.0030764735 0.0025014847 -0.0025053362 0.0012986998 0.0023788263 0.0022592917 -0.0044483687 0.0017264998 0.0043878104 0.0032650512 -0.002791616 0.0033900281 0.0031715399 -0.0037801065 -0.004873248 -0.004394174 0.003708567 -0.00021978043 -0.0012893206 0.00014983756 5.7397406e-06 -0.0010160481 -0.001233436 -0.0045275334 -0.0044508004
lloran -0.0037705782 0.0033276572 -0.00015767908 6.626439e-05 0.003874177 -0.0007726589 0.00040126545 -0.0026530554 0.0024732219 0.004790887 0.00011710727 -0.0023577916 0.0032520788 -0.0033854716 0.0013089662 0.0021557892 -0.0026095232 -0.0036851491 -0.00426935 -0.0039694165 -0.0061831763 0.003460414 -0.0023516302 0.0015355558 0.002041305 -0.0055184057 -0.004395719 0.0034970772 -0.00067637046 -0.0024226017 -0.0043200343 0.003729675 0.0011302578 0.0012472941 -0.0022669 -0.0005357807 0.0005802884 0.0009383768 -0.0014157918 0.002960458 0.0062564085 0.0017741519 0.00223556 -0.0064766193 -0.0015211453 0.0017487304 0.001875418 0.0040783742 0.005036895 -0.0003335916 0.0038210417 -0.0003859856 0.0015996499 -0.0033300717 -0.00055465364 -0.0029886349 0.00029908217 -0.0006794608 0.0011161373 -0.0021192052 0.0030171778 0.003942 0.004386383 -0.004204094 0.0040559075 0.006446965 0.005398193 -0.0012892424 -0.002435151 0.0034167736 -0.0016173726 0.004231404 -0.0014373125 -0.0015177932 0.0029461428 0.0020526526 -0.001515279 0.0048174737 0.0037249953 -0.0013612694 -0.0053126086 0.0013048623 -0.0014693787 -0.0015640088 -0.0005944074 -0.0023809054 -4.815865e-05 0.0038350106 0.0011546243 0.0031610364 -0.00028094626 -0.0030074092 0.0040310207 0.0036706983 -0.0019696888 0.0027031389 -0.0013779597 -0.0045672506 -0.0012100935 0.0036910872
berrinche -0.0012531164 -0.0016163212 -0.001325435 -0.004750075 -0.0042083007 0.005164994 0.0006985964 -0.0035130372 0.0019932338 0.0050559505 -0.0027465739 3.87623e-06 0.005504875 -0.0005356678 -0.0022943462 -0.005957105 0.0007517354 0.0041001146 0.0024841942 0.0012028669 -0.0059056333 -0.0028659473 -0.0041100997 -0.0034624217 -0.0022608917 0.00093930576 -0.0013428013 -0.0029682477 0.00022522197 -0.0015389769 -0.003931117 -0.0013079054 0.00090832484 -0.00046169895 -0.00052412774 -0.0037995174 -0.0031517167 0.0021954693 -0.0026586927 0.0007331136 0.0034159136 0.0017064327 0.0033851082 0.00032486374 -0.001815883 -0.0010786646 0.0036544616 -0.0013350351 0.0038448225 0.0025682298 -0.002172329 -0.00055361894 -0.0030287725 -0.0049958355 -6.9776404e-05 0.0033306773 -0.0028760503 -0.004186567 -0.0019419211 -0.0046826266 0.00055915 -0.0030964052 -0.0017356413 0.0041138064 0.0011422368 0.005083352 0.0053872243 -0.0026215678 0.0036527668 -0.0021722438 -0.003586497 0.0024797313 0.0008021221 -0.0025973222 -0.0010339955 -0.004259049 -0.0034107477 -0.0028706745 -0.004794344 -0.0018483198 0.0019348741 0.0037389696 -0.004669754 -0.0052308906 0.0005272382 0.005013991 0.0028126414 0.0019156558 0.0029960698 -0.0011777537 0.001750832 0.0006093527 -0.0053610774 -0.001614424 -0.00111504 -0.0032175777 0.00035087418 -0.0012986894 0.004746231 0.0010588762
inquieto 7.9216275e-05 0.000762732 -0.00076307676 -0.00075012806 -0.0041852677 -0.0044326573 0.004391331 0.0024567153 0.0014520182 -0.0037196781 -0.00040601863 0.003163215 0.0044766176 -0.0021860935 -0.0055133617 0.0010093448 0.0018676429 0.002793948 -0.0024751292 0.002505099 -0.0022923793 0.0018840133 -0.005182941 0.00037954978 -0.0053476025 -0.003966296 -0.0028082458 -0.0045561334 0.0031879118 -0.0043042433 0.00143579 -0.00036631792 0.0038053424 -0.00065691734 -0.004784794 0.0035888967 -0.0019698713 -0.002938009 0.0011789579 -0.0017929225 -0.0035482654 0.0040192828 -0.0039272904 0.0019402583 -0.0014603883 0.0037526756 -0.0047073113 -0.0036430995 0.001382384 0.0036383485 -0.0024140095 0.0044250702 -0.0020147455 -0.0017566924 -0.005406225 0.0018896194 -0.00095106 0.0037875117 -0.000799344 0.003504663 0.0024703774 -0.0031920858 0.003563623 -0.00391689 -0.0031064178 -0.000113563015 0.00022861165 0.0022433477 0.004542565 0.00508708 -0.0019435297 0.0048011434 0.0026775592 -0.0031225742 -0.0023783704 0.0020299652 -0.001967797 -0.0010099759 0.0044830004 0.00062468793 -2.5285543e-05 -0.004088098 -0.0057431213 0.0034005675 -0.0031043976 -0.0017946077 -0.00032295097 0.0014154633 -0.004024154 0.0024096048 0.0034623884 -0.0009639865 -0.0039542075 0.0033433025 0.00043728176 -0.004378345 -0.004924116 -0.0028285892 -0.0028818217 0.0012040363
significa 0.0039458685 0.00042454578 -0.0014409168 -0.00027538283 -0.004504799 -0.00054733607 -0.0050737127 0.0043835402 0.004937295 0.004076595 0.0033114604 0.0030813485 0.0024610613 -0.00058950693 -0.001511526 0.00106485 0.0053833607 0.002062498 -0.0047836313 -0.0024768303 0.0024676383 0.0028410023 0.00013401157 0.0038897914 -0.0058939974 0.0039168876 0.0002498664 -0.005074826 0.0048778756 -0.00017988055 0.0003520594 -0.0029692657 0.0028153807 -0.0036110017 0.004689291 -0.0062088575 0.0019243216 0.0028761618 -0.0004301667 0.006211925 0.0039929766 -0.0016967987 -0.002110889 0.00014335693 -0.0045823394 -0.0021563468 0.004919683 -0.0032396764 -0.0031625088 0.0051339045 7.264226e-05 0.005149047 0.003799363 0.0028222124 -0.0008601627 -0.0046818065 -0.0012207216 0.00037148668 0.005958962 0.0029297578 0.0049441652 0.003926925 -0.0018445102 -0.0027803301 -0.0038815048 0.0055960114 -0.0009963766 -0.00026372273 -0.0036949886 0.004004061 -0.004130398 0.0013324103 -0.0052707708 -0.0029830215 -0.0035511693 -0.0021247836 -0.0031447671 0.00450242 -0.001930542 0.0032154215 0.0015419555 -0.002340724 -0.0035914131 0.003382846 0.0032196953 -0.0034431845 0.004658743 -0.0043280157 -0.004507466 -0.0003948162 -0.0020264536 1.7064842e-05 0.0016652951 -0.0014831938 -0.00037663357 -0.0038217143 -0.004806581 0.002229642 -0.0030227446 0.003630381
ninos -0.0018551236 -0.0031045936 0.004126543 0.0033770453 -0.00093999883 -0.0013948109 0.003307922 -0.0035390847 0.0053909756 0.0022752467 3.889674e-05 0.0015359588 0.0053310036 0.0039285673 0.0029509165 0.0020193954 -0.0006629477 0.0014191316 -0.0049286042 -0.004190706 -0.005144103 0.0005796162 0.0026335632 0.0025205764 0.0040852395 -0.0029114645 -0.0015099734 -0.002949121 0.0012594154 -0.0006644252 0.0036228388 -0.0050426903 0.004042739 0.0045994637 0.0048617055 -0.00088595727 -0.0015213381 0.0004288078 -0.0013595474 0.003827447 0.005225232 -0.00026721254 -0.0027006306 0.0028188496 -0.0018926963 -0.002191056 -0.004697812 0.002327316 -0.0038139496 0.003536369 0.003490085 0.0010428401 0.0032987478 0.0010597784 -0.005140643 -0.0036032996 -0.0020742812 -0.0054312414 -0.0022762248 0.002767626 0.0024833027 -0.001472378 -0.0035842005 0.0029714808 -0.004417863 0.0011271539 0.0011216268 0.004698371 0.004238639 0.00032447354 -0.001099596 -0.00012126618 0.0030021095 -0.004247186 0.004534443 -0.0019508747 0.00043295373 0.004124997 0.0038847036 0.00087640027 -0.005022036 -0.004854592 -0.0028896097 0.004238007 0.0012688076 0.0028656237 -0.0044395966 -0.003470257 0.00014384171 -0.003161142 -0.003907354 0.0039437413 -0.003674901 0.0036914768 0.003282166 -0.0041215606 -0.001171338 0.000976596 -0.0018601831 0.0023871958
pequeno -0.003131367 0.0012137218 0.0045385556 -0.002696382 -0.0047542336 -0.002377064 -0.0023720185 -0.0014276973 0.00039454666 -0.0017507486 -0.0028804885 -0.002885435 -0.003374279 0.0009855054 -0.0020287163 0.0035386358 0.0003849603 -0.0037657283 -0.001027051 0.0018121594 -0.0026640962 0.0008095228 0.0017642286 0.0038047943 -0.004620147 -0.0005418352 0.00043746535 0.0012804804 0.001113065 0.00083822466 0.00033602645 0.00016559937 0.00040097625 0.004295804 -0.0028842231 0.0032507654 0.00039148136 -0.00011920841 0.0015749247 -0.002622393 -0.00021671865 -0.0006425206 2.2993241e-05 0.0038550769 -0.0008264804 -0.00441144 0.00023290365 0.004192634 -0.0038333936 -0.004838965 -0.0025400415 -0.0039051548 0.0042987806 0.0029390568 0.0016694559 -0.00042669248 0.00021170036 0.00012254751 0.0038185564 -0.0016856266 0.00092923094 -0.002469121 0.0017613418 -0.0045776074 -0.0043643103 -0.002602845 0.004813324 0.0031878406 -0.004227429 0.0029286742 -0.0026790858 -0.0005600481 -0.001678432 -0.0014991252 -0.0019499412 -0.0047546285 0.0013160747 0.0001519768 -0.0047481856 -0.0014403227 -0.0029992862 0.0036777125 0.0008351046 -0.0053726616 0.0033138762 0.001198135 0.0017975618 -0.0048716282 0.0045713247 -0.00021056751 0.004006984 -0.0014420851 -0.00060809543 -0.0031768032 -0.003938638 0.001493791 -0.003956083 0.0033144667 -0.0028350805 -0.0038990523
chilla -0.00295102 -0.0012876181 -0.0039317934 -0.0029628114 0.0011825353 0.0042637037 0.00038429373 -0.004552358 0.00039179705 -0.003640625 0.0014623477 -0.0022469976 -0.0021543377 0.0012715551 0.00448941 0.0036468646 0.0048834197 -0.0037369465 0.0016345753 0.0038620143 0.0023815285 0.004083013 -0.0012546215 0.0040124394 0.0002463958 -0.001386194 0.0023465022 -0.0036915436 3.3568598e-05 -0.003708521 0.0022466853 -0.0029504385 -0.0047392473 0.0036011874 -0.002015444 -0.003802694 0.002113447 -0.00023359581 -0.002469482 0.0017521236 0.0031147592 -0.0031318355 0.0022545017 0.0005685082 -0.004541584 -7.7935016e-05 0.0026623926 -0.004116418 -0.0015391406 -0.0042030117 -0.001479054 0.0017415363 0.004112655 -0.0054239654 0.0044098333 0.00277433 0.004030206 0.0010933309 0.0019263055 0.0024156694 -0.00417406 0.002029858 -0.0003407253 0.003657246 -0.004853791 0.0021837389 0.00441571 -0.0017846491 -9.229762e-05 0.0025739474 0.0020580448 -0.004055345 -0.004313373 -0.0038635505 -0.0028480976 0.0017182714 -0.0048405887 0.0007429215 0.002514952 0.0010185147 0.003427537 0.0036592614 0.0005962611 0.0029044822 -0.0040047923 0.0014480447 -0.0026621746 -1.675956e-05 -0.0018030144 -0.0033354578 0.0037110962 -0.000502029 0.003584872 8.338504e-05 0.001446805 -0.0039537493 0.0029730431 0.004895609 -0.004749204 0.0021757684
gritón -0.0035175874 0.0037846698 -0.00334879 -0.0050747544 0.0046990137 0.004533693 0.004118578 -0.0011348875 0.0010948762 0.0023989927 -0.0046361643 -0.004333877 0.0030663456 0.0038423014 -0.0042304867 -0.0023635821 0.00041194656 -0.0019384832 0.0023892734 0.00059880357 -0.004817284 -0.0013971458 0.004496054 -0.0011924589 0.0007114406 -0.0011760148 0.0026667935 0.0037750881 -0.0020122463 -0.0041689794 0.0014858642 -0.0020297295 0.004387355 -0.002430148 -0.0012640975 -0.00029729423 -0.0047583557 0.0037352436 -0.0030661535 0.0013672821 0.0059011816 -0.0011759836 -0.0035108991 -0.0026905984 0.002040843 -0.005516313 0.00083244545 0.0035864352 0.002379335 0.00050793344 -0.003953108 0.0031411408 -0.003697214 0.0014432538 -0.005035923 -0.003773965 -0.0046897167 0.0037951516 -0.0035168983 0.00078804756 -0.00025496812 0.0017990145 0.0012729628 8.366345e-06 -0.0045840577 0.00059763587 -0.004428213 0.0045748265 0.0034084416 0.0025791759 0.00088786904 -0.0013456028 -0.0030862328 0.00020477155 0.00061330013 -0.0032697103 0.00048389728 0.0035541079 -0.00261025 -0.0046425015 -0.0034273216 0.0038018215 -0.0020258292 -0.0028436796 -0.002630574 -0.000102930135 0.0008417064 -0.0014956001 -0.0038758991 0.0015860508 -9.2560564e-05 -0.004691759 0.00082738785 0.00096087693 0.0048133647 0.0010758863 -0.0041463436 0.00040391675 -0.0035532888 -0.0042282855
revoltoso 0.004343599 -0.0050353054 0.003234017 -0.0066648056 -0.0011076371 0.002250804 -0.000652568 0.00445705 -0.0041141044 0.0042465464 0.0054393355 -0.0039724694 -0.002909322 -0.0009254973 -0.0033688648 -0.00035624253 0.0021980188 -0.0032721034 -0.00074382307 -0.004205866 -0.004119348 -0.003422665 -0.0024955245 -0.0033341886 -0.0030924561 0.0027295318 -0.0015628036 0.0018368745 -0.0014062496 0.0036799312 0.003735252 -0.00115897 -0.0035864043 0.00393215 0.001894541 0.0012327712 -0.0023758998 0.0016580209 0.0012620051 0.003313711 -0.0023442216 0.0008177073 0.0020887794 -0.006024022 -0.00061570125 -0.0030180889 0.004978097 0.0008835092 -0.0035399827 0.0015738403 -0.0028136596 -0.0040634996 -0.0032400351 -0.0018089637 -0.0010524625 -0.004855145 0.0010650626 -0.0059725153 0.003087724 0.0016018108 -0.0038669694 -0.0028627673 0.001829317 0.0032848294 0.0033388985 -0.00015250212 9.713435e-05 0.003629242 -0.0036853186 0.0034994266 -0.00041726136 -0.0014042053 0.0026773422 -0.0043471945 -0.0036603846 -0.0008332847 0.00069528754 0.006256613 -0.0040367087 0.0009858891 -0.0032968502 0.00074720517 0.002646125 -0.00073577324 -0.0014654386 0.005210626 -0.0016762607 -0.0033981926 -0.0025227328 -0.0007464795 0.0032827442 -0.0031636632 -0.0052786693 -0.004820022 -0.002326504 0.005012839 0.0023453305 0.004467092 0.004124978 -0.0010805087
crío 0.00042976774 0.0015306352 -0.0030482286 0.0020883384 -0.0003518289 0.0018509881 -0.004226427 -0.002765732 0.0006775926 0.0021411064 0.0028463 0.002861278 0.0047046705 0.00013384395 -0.0024688155 -0.003783501 -0.00020354374 -0.00050342735 0.00069951697 0.0026128523 -0.0016303967 0.0048482865 0.0024680519 -0.0033155722 0.00035489313 -0.005465401 -0.001383408 -0.0014445564 -0.0039433236 0.0009783881 0.000119311604 0.003152563 0.00064775156 0.0018424125 -0.0009087466 -0.0041025556 -0.0025972575 0.0038037726 -0.0031177201 0.00054322544 -0.0029582307 0.0033518565 -0.00045679358 -0.005186539 0.0013890843 -0.0008134883 -0.0017151575 0.0036645548 0.003011055 -0.0012253416 -0.0041313926 0.0042756097 0.0026234605 -0.005386317 -0.0014215189 0.0023687654 -0.0011931825 -0.0032840273 0.0036573638 -0.005209997 0.0034049577 0.0032575622 0.00063078105 -0.0038850482 -0.00023180895 0.002575559 -0.004397597 -0.004305979 0.0048396727 -0.0040615043 0.0047654747 0.0006347279 -0.0049822475 0.0012203155 0.000670605 -0.001443286 -0.0026875706 -0.0032560704 -0.004221404 0.0036704335 -0.002343256 -0.00038995733 -0.00423601 -0.0034560878 -0.0025701644 0.0054417527 -0.0021703357 -0.0025184557 0.0011817246 -0.003466179 0.0025175968 0.0013144056 0.0026275008 -0.0007537865 -0.0023736875 -0.00432149 -0.0011231686 8.435851e-05 0.00039829 -0.0025902486
niños -0.00447036 0.0032240157 -0.0045048967 0.00070744153 -0.002397558 0.0043460033 -0.0021086757 0.0022075148 0.00085429335 0.0020840808 -0.0018879998 0.003684028 0.0017499733 0.00341585 -0.0050743055 0.0011090494 -0.0022024163 -0.00396088 -0.00036204595 -0.0044939257 -0.0023619751 0.002409056 0.002779009 -0.0008801327 -0.003481526 0.00089502474 0.0035442263 -0.0057032323 0.0032519056 -0.004403965 0.0036735716 -0.0029685604 0.000691735 -0.0027362911 0.0005540031 0.0010383213 -0.002788355 0.0036362405 0.004814755 -0.0034597127 -0.0026518642 -0.004127195 -5.2855816e-05 -0.0012837751 -0.003154352 -0.000492611 -0.0026674643 -0.002302999 -0.0033960142 0.0003273216 0.0041144486 0.0040715258 0.00088596926 0.0041505024 0.0012492742 0.00048706538 0.00034777512 -0.0047909166 0.0038036364 -0.00056628237 0.0031334574 -0.0014596527 0.0027652048 -0.0039661964 0.0026543878 0.0058314265 0.00010597337 0.0053706565 0.0042232852 -0.0014688445 0.0003293831 -0.00058257993 -0.0014691878 -0.0034155217 0.001418174 0.0017830539 0.001826084 0.0031291812 -0.002571358 0.0030087759 -0.004005785 -0.0030528926 -0.00019066583 -0.0031078493 -0.001797602 0.0020202724 0.0016981128 0.0022829769 -0.0004432252 0.002727666 0.00396738 0.00013415609 -0.003249056 0.00424068 0.004761755 -0.001323196 -0.0032861254 0.0006512238 -0.0034039533 0.0045227455
pequeño 0.00037237137 0.0010618046 0.0010995822 0.002374331 -0.0021302116 -0.003219908 0.0006470265 -0.004155351 0.00078870705 0.0033506935 0.00257534 0.0017672443 -0.0006900438 -0.0029666617 0.00027687458 -0.0015928305 -0.0012124918 0.0020154954 -0.0024701667 -0.003759874 -0.006043991 -0.0021623492 0.0010627802 -0.0016707444 0.00029216704 0.003537683 -0.00031427943 -0.0059297928 0.004599325 -0.0040639997 0.003994249 -0.0011823027 0.0014004696 -0.0020557784 -0.00233976 -0.0022256658 0.0029361823 0.00017928517 -0.0007062668 0.0023679144 -0.0005663697 -0.004566157 -0.0013784003 -0.0038496826 -0.0010252199 -0.0055864635 0.00054415886 -0.0021428815 -0.0029073365 0.00015484268 0.0005199554 -0.002247383 0.004055723 0.0012675994 -0.002176708 -0.0018406915 0.00136241 0.0018109292 0.004243853 0.0020793967 -0.0018113041 -0.003754134 0.00089113595 -0.005336766 0.0002740515 0.0032546052 0.002827141 0.0049978304 -0.0014100645 -0.0024654546 -0.0022394494 0.0032473505 -0.0030261716 -0.0048253727 0.003035303 0.003341785 0.0003368641 0.0055930577 7.908613e-05 0.0030093498 0.001774422 0.00010605875 0.0015804957 -0.0033352643 0.0049614157 0.0056451457 0.0006885836 0.004128349 -0.004002644 0.0032876409 -0.004080581 0.0022172395 -0.0042109685 -0.0017631862 0.0023590124 0.0023845579 -0.0062082116 -0.0013855878 0.0017126347 0.00037936057
chillón 0.0020151283 -0.0053062863 -0.00046790903 -0.0040162075 -0.0017237103 -0.0020234396 -0.003564905 -0.0018477427 0.00017775704 0.0003285909 0.0010751334 0.0027608327 0.00021163146 0.0022645458 -0.004958835 -0.0050635985 0.00036595494 -0.00054041087 0.0005089138 -0.0019778537 -0.0012147014 -0.0036610193 -0.0032368617 0.0011360738 -5.701975e-05 0.0038909097 0.0044696615 -0.0059874174 -0.002035642 -0.0049054986 -0.00039113767 -0.005391707 0.0028004358 -0.0029123337 0.00023334223 -0.0029309448 -0.00046663947 0.0008163355 0.0050151553 -0.0035264504 0.0040086363 -0.00410786 -0.0013675182 -0.007115368 0.00437602 0.003305497 0.0014456452 -0.0013799282 0.003536649 0.0006933978 -0.0057863086 -0.004163995 -0.000100849604 -0.004318169 -0.00045990516 -0.0020084463 0.0032222401 0.0011309945 0.003500808 -0.0010428564 0.0010953727 0.0030131266 0.0017656226 -0.0010068243 0.0047699814 0.0052984534 0.0038546114 -0.0004628428 0.0048131873 -0.0013453776 0.0046284306 -0.003719344 -0.00274932 -0.003149811 -0.0023616469 0.003459619 -6.2146064e-05 0.003415018 -0.00049809564 -0.0013342977 -0.0012954584 0.0038750113 0.0028668588 -0.0013442816 0.005587902 0.004353379 0.001255636 -0.004510145 0.004356899 0.0020419855 -0.0040162182 -0.0008231033 -0.0014739368 0.0012928445 0.0035057669 -0.0038954285 0.00083224213 0.002608406 0.0022139077 0.0028339906
hermanita -0.0045810244 0.0009919901 0.0045788824 0.0008150309 -0.0009919736 -0.0028900388 -0.0005044331 0.0012998014 0.004822573 0.0014644684 0.0013713815 -0.0046468065 -0.0039093033 -0.0030486071 0.0018679906 0.004073356 -0.0007211588 -0.00020764724 0.0010259096 0.00057501637 -0.0021464832 0.0038230142 -0.0033394839 0.002854852 0.00061325467 9.129137e-05 0.00025109042 0.00020173982 -0.0035804615 0.002034653 0.0033978766 0.0020196107 -0.0022316105 0.000855403 -0.0024944178 -0.0046569305 0.0016801968 4.0267543e-05 -0.00023549107 -0.00034857495 -0.0015151307 0.0019292682 0.004650677 -0.0021790285 0.0025427984 0.0014297093 0.0005290206 -0.0012473977 0.003640243 -0.0047116196 0.0016910189 0.00021521427 0.0041695437 -0.00042375558 -0.00014150006 0.0020328793 -0.0004957678 -0.0035418358 0.0052643395 -0.0009654894 -0.0045589907 -0.0013725595 0.0051458497 -0.0014419134 -0.0035367415 -0.003038314 -0.004191909 0.0014327999 -0.00026082486 -0.0004469177 0.0038954788 -0.0015459501 5.6839137e-05 0.0006407835 -0.00375873 -0.0026304498 -0.0018947022 -0.003425653 -0.0012186691 0.0033052252 -0.004372381 -0.0042750095 0.0017999079 -0.0014115641 0.004775368 0.0017382463 -0.0047104186 -0.004687267 -0.0045020618 -0.0002612624 0.004123503 -0.0003710902 0.0015949446 -0.002869577 -0.0004367637 -0.0024856525 -0.002468334 0.0037310435 -0.003341513 -0.0019142581
chiquillo -0.003714836 -0.00095486396 0.0016158597 -0.0049026213 -0.003103968 0.003995406 -0.0019363996 0.00023132114 0.00036183515 -0.0042394577 -0.0011078271 0.0046357745 0.0013307588 -0.0010189456 0.0023913712 -0.00051259884 0.0048857518 0.00023029222 0.0015986607 0.0001071734 -6.371754e-05 -0.0044716336 -0.0015413748 0.001268391 0.00075044227 -0.0022545059 4.8097252e-05 0.0009802968 -0.00060578715 0.0036771623 -0.0048948056 0.0024593163 -7.735976e-05 -0.004075553 0.0006864124 -0.0035093878 -0.0046586744 -0.0031829558 0.0011156336 0.0022465196 0.0013195309 0.0028062307 0.0019739722 -0.0020626895 -0.0018333358 -0.0049647796 -0.0020091548 -0.0004932466 0.00498327 -0.002815366 -0.0041750674 0.00072542345 0.0012914792 -0.0052096983 0.0036646118 0.00021056234 0.0033691733 0.00047576975 -0.003020253 -0.00013839104 -0.0009304167 -0.0019325737 0.00038720388 -0.003374384 0.004966244 0.0015688168 -0.0002665494 0.0011189245 -0.0011045155 -0.004175043 -0.0019181302 -0.004669922 -0.002680798 -0.0054814196 -0.0029576963 0.0028659622 0.0014878549 0.0011360573 0.0007743479 -0.0021712766 -0.0025917501 0.0042365924 -0.0001827023 0.002713458 0.0028613866 0.004016206 -0.0016555361 -0.004031694 -0.0045898887 0.0009380601 0.0052161436 0.001993689 -0.0042563956 0.0004060821 0.0036044514 -0.0028991255 -0.004685196 0.003835044 0.0017126244 -0.0010849467
cosa -0.0030219536 -0.0019429887 -0.0025604116 -0.0032022896 -0.0049955663 0.004618513 0.00023220349 6.897077e-06 -0.0034189338 0.0034994946 0.0047682542 0.0032542625 0.0026031125 0.0033026624 -0.0033005865 0.0013311496 -0.0039002236 -0.003494386 0.0028264378 -0.0018722865 -0.0040816804 0.0033205596 -0.0048867036 -0.0009114196 -0.0033070517 -0.0025591399 -0.0005875805 -0.0017275593 -0.0039139558 -0.0024670037 0.0028357115 0.0034388269 -0.0006734446 9.300225e-05 0.0014650455 0.0002215391 0.0034352574 -0.0046415804 -0.00022205296 0.0030541797 0.004204118 0.002937069 -0.004216319 0.0010398305 -6.946174e-06 0.0018267881 0.00047957624 -0.0014174393 -0.001343997 -0.0028213568 0.0016938688 0.0033036985 -0.0018634264 0.0027448616 0.0037867797 -0.004383063 0.0025427279 0.0010240417 -0.00083196175 0.0001546953 0.00087904587 0.0016713656 0.0042254473 -0.0012345191 -0.0041612163 0.0046177073 -0.0012404771 0.0045203078 -0.0041762944 0.005064985 -0.0044105593 -0.004049013 -0.0050544697 -0.0050690845 0.0033828109 -0.001722315 -0.0025636193 0.00469726 0.00088473904 -0.0010073136 0.002375654 0.003058669 -0.004030549 0.0035560294 -0.0038030148 -0.0020176547 0.0018817418 0.0034644064 0.0009914935 0.0005050347 0.00205126 0.0010195841 -0.0052754865 -0.0043293117 -0.0036182085 -0.0014930064 -0.0051014917 -0.00015561454 0.0021476606 0.003070224
bebe -0.0035279882 0.0036356635 0.0046713413 -0.00563644 -0.0034499494 -0.0027064814 0.00172938 -0.005176452 0.002680004 0.0013374218 -0.0019138189 -0.0009301612 0.002982091 0.0035721818 -0.0053475746 -0.0030857315 -0.0011739304 -0.0018929407 -0.004176229 0.00037773795 -0.0030955423 -0.0031291686 0.003574107 -0.0021649436 -0.002018062 -0.00035419606 -0.0031101096 -0.0030480812 0.004198289 -0.00018433848 0.000580515 -0.0034651146 0.0011231094 -0.00054596545 0.0045906473 -0.0023727724 -0.004745808 -0.0034962276 0.0020594995 0.00043474213 0.00087591854 0.0013105117 0.00049044436 0.0014519214 0.0021427278 0.0040264027 -0.003397059 0.0036135542 -0.00395487 0.0013802813 0.0028738086 -0.0011163848 0.0041275774 -0.00072130817 -0.0027107059 -0.0033102862 0.0019755473 -0.0016997781 -0.0027365736 -0.004356708 0.0017185797 0.0016857301 0.0021731653 0.0007340412 -0.00073845335 0.0023078723 0.0032965445 0.0032125954 -0.0032118314 0.0014459084 -0.00333332 -0.0040247785 -0.001055407 0.0040557184 -0.0014173092 -0.003220089 -0.00021979274 -0.00026962822 0.0022396278 0.0004461211 -0.0024006988 0.0027638562 -0.0032369944 0.0016860388 0.0030824624 -0.0004667872 -0.000107500135 -0.0051923906 -0.003143049 0.0016979256 0.003239582 0.002993492 0.0025958777 0.0029380214 0.0014612098 -0.0029377239 -0.00018513862 0.003920351 -0.0042402837 0.0028553929
chillar -0.0038712504 -0.0030336757 -0.0023167362 -0.0044183773 0.00052481494 -0.0025724792 0.0019673035 -0.0018789257 0.0047365758 -0.0009092997 0.0028926246 0.0019514599 -0.0030536817 -0.00448269 -0.0049376553 -0.0059519424 0.0006116396 -0.00013023091 -0.00079112995 0.0042990837 -0.004196323 0.0048230193 -0.0023329647 -6.225978e-06 -0.0018987161 -0.0001377349 0.004394453 0.0035188124 0.001801952 -0.00037453708 0.002216618 0.00070099666 0.0035542487 0.0020052257 0.0036996056 0.001726307 0.0013335051 -0.0035555481 -0.0031623726 0.003793396 0.004969637 0.0010036685 0.0030767769 -0.0050630122 0.001999394 -0.00061773846 -0.0040547294 0.0040916977 0.0043423194 0.0042272084 0.0025929678 0.0025085118 -0.0026756192 -0.0021102666 0.0035261365 0.004094955 -0.004005008 -0.0028903075 0.0030046005 0.0034896212 -0.0013817851 -0.0047554863 -0.0031028944 7.3663e-05 0.002038165 -0.0015373214 -0.0011820403 0.0010965882 -0.004266591 -0.0012900317 0.0007747298 0.0042780996 0.004080253 -0.0033874388 -0.0037254863 -0.003201244 -0.0007544722 0.005090913 -0.0012886564 0.003731589 -0.0051751565 0.0010428249 -0.0018690708 -0.003493123 0.005285046 -0.0034839604 0.0006498201 -0.00404844 -0.0049448614 0.0015151073 -0.0032381236 -0.0011047377 0.0015275703 8.840327e-05 -0.0028933266 0.00018615152 -0.0046393326 0.0030728471 -0.0035416305 0.0024686742
chillan 0.0034957596 -0.0018805715 0.00012958226 -0.0054394724 -0.0023239357 -0.001061445 0.00078626274 -0.0046680947 0.0007722406 -0.0038198717 0.005108501 0.000838897 0.0033944312 0.0033322333 -0.002159645 -0.003854972 -0.0029572942 0.0036545906 0.0032276637 -0.00050190045 0.0036955904 0.0029884146 0.0041192695 0.0032751744 0.0035103585 -0.003697845 0.00027782968 -0.004475384 -0.001265456 -0.001888535 0.0040833782 0.0012397589 -0.005291245 -0.004851388 -0.00030210463 -0.0037540814 0.004726782 0.003183751 0.003865824 0.004905488 0.0011852864 -0.0033909855 0.00025696892 0.00078555214 0.0035262867 0.0014595821 -0.0012620564 -0.001305938 0.0056002373 0.004710055 -0.0005735311 0.0031730903 0.0017423818 -0.004944986 -0.0009324629 -0.0012266848 0.0025185782 0.0025792003 0.0050339936 -0.0051392773 -0.0042313826 -0.0038722833 0.0041449894 0.0038746577 -0.0029540644 -0.0014395396 -0.00039474518 0.002320469 0.0034553977 0.0048381616 -0.003724542 6.763595e-05 -0.0020927647 0.0034644704 0.002045129 -0.0007981849 -0.003412941 0.0025292942 -0.0040547564 0.0009910613 -0.00040421437 0.003931865 -0.0032099257 -0.0037754541 0.0014318723 0.0003350346 -0.0042057983 -0.0030501678 0.0026401728 0.0024390076 0.0034807564 0.0040010274 0.0017400989 0.0026904608 0.004621185 -0.002928248 -0.0025429784 0.0008083003 0.004927628 0.0026598617
refieren 0.00033839975 0.001110068 0.0020877873 -0.0052282577 0.0027435492 -0.0045808214 -0.001552731 -0.0047374717 0.0017448458 -0.0030845567 0.00072439166 0.003179592 0.004079045 -0.0035920949 -0.003110902 -0.0063274377 -0.002678501 0.0013465645 0.0028555589 0.00085378514 -0.0003148019 -0.0019963705 -0.0017531901 0.0052715056 -0.0044910433 -0.0026932016 -0.00065064133 -0.0008692524 0.004703481 -0.0036068228 0.0005520928 -0.003862705 0.004411341 -0.00024769656 -0.00011618018 -0.00036683108 0.0045385538 -0.003583246 0.0006706204 0.0003295662 0.0046892213 -0.0039942577 -0.0007684162 -0.006134103 0.004180501 -0.0023977966 0.00029334365 0.004077978 0.0029915203 -0.0004888967 -0.0039171707 0.0024128505 0.0041075344 -0.00430188 -0.0031076514 0.0029017914 -0.0020876927 -0.0051007383 0.0007511934 -0.0017614616 0.004951237 -0.003490695 0.0042541437 0.0013771101 -0.0033176336 0.00077796436 0.0035939522 0.0054738633 -0.0033018342 0.005443134 -0.0009411403 -0.002331812 0.0020280322 -0.004033779 -0.0021580993 0.0025312607 -0.0013652485 0.0051873396 -0.0019434821 0.000113478425 -0.001474928 -0.0005396347 0.00063914305 -0.0033080578 -0.0039776624 0.0026502146 0.0041495957 0.0034553728 0.0022558158 -0.002786114 -0.002333271 0.004171667 -0.0038912694 0.0019306865 0.00014936367 0.004232391 0.0019563264 -0.0020188228 -0.0024524292 -0.0025632568
gruñe -0.0010888597 0.00020930351 -0.00025750368 0.001184525 0.0012849508 -6.676823e-06 0.0031333459 0.0011903481 0.0043123206 0.002873228 -6.493889e-05 0.004056431 0.004958793 0.0047186124 0.00085693825 0.0010682705 -0.0030247346 0.0030717307 -0.00082699663 0.0008326913 -0.002955891 -0.0009532074 0.0030348806 -0.0026597565 0.0042381324 0.0044264244 0.00080026605 0.0015351879 0.0035323014 0.0024616588 -0.0010669314 -0.0033798122 0.0025072831 0.0047606057 0.0022287928 -0.0015754779 -0.002970723 -0.002426719 0.0024557244 -0.0019600072 -0.0022466558 -0.00179056 -0.0015400364 -0.0009912013 0.0029468713 0.0011245203 0.0019779329 0.0019584424 -0.004364443 -0.0034006836 -0.0048894784 -0.002587838 0.00476632 -0.0024715948 -0.0016397922 -0.004753879 0.0014416747 -0.0012004146 -0.0016861499 0.0032475512 -0.0026214716 0.005008425 -0.0021985518 -0.0048905117 -0.003988663 0.0028431432 -0.00077123643 -0.0019915863 -0.004929267 0.0034796884 0.004098215 -0.0002995992 0.0040020603 -0.0041565862 -0.0024628015 -0.0019404787 0.0040599643 0.00043409507 0.0026514225 -0.0039729252 -0.0022716725 0.0010254849 -0.00416435 -0.0050606243 8.997021e-05 0.0035390924 -0.001717943 0.0026555925 0.00085091416 0.0015270265 0.0015153968 -0.0026388124 0.0031369238 0.00055071164 -0.0043668947 -0.0020840184 0.004627648 0.0036620349 -0.0032254255 -0.003002339
sobrino -0.004844111 0.0038285651 -0.004261534 -0.005079591 -0.0005717722 0.0033782301 -0.003212579 0.0014883801 -0.00183855 -0.004199445 0.004122837 0.0034290843 0.0053261737 0.0007601428 0.0018959655 2.3579725e-05 -0.0032067823 0.00049363927 0.0005706093 -0.003414336 -0.0024744386 -0.000562465 -0.0028917827 -0.003808062 -0.00075563666 0.0002718722 0.002651644 0.0023115864 -0.0022060715 0.00029023396 0.0015114471 -0.0029973881 -0.00018342104 0.0036326423 -0.00043100075 0.002071978 0.002637257 -0.0016783646 -0.0033302316 -0.0010616791 0.0041050743 -0.002953767 0.0005466594 0.00087469793 0.0046255128 -0.0026419233 0.0050809155 0.004172109 -0.004294664 0.002724449 -0.002347387 -0.004217281 0.0033895224 0.0023286464 -0.0027984579 0.0024190878 0.0028844944 0.00095826905 0.003585125 0.003773366 -0.003046816 -0.0026166223 0.002611089 0.0040921667 0.0009363996 0.0007328005 0.005143198 0.0018678571 -0.001980515 0.0042433427 0.0033368242 0.0036954475 -0.003615267 0.0034569083 -0.0046430686 -0.00057964865 -0.0026172006 0.0005576452 -0.0026188188 -0.0047699306 0.0018279192 0.0035216196 -9.2688824e-05 0.00046361415 -0.0037713156 0.0026838898 0.0048921215 0.0004770757 0.0012491655 -0.001411643 -0.000269303 -0.004607048 -0.0016624961 -0.0023278561 -0.0041276067 -0.0038049768 -0.00012054127 -0.00074475975 -0.0029477524 -4.7144185e-05
padre 0.0027916643 -0.004663773 0.0044872384 -0.0031705808 0.0019502388 -0.004220501 -0.0031427194 0.001850632 -0.0014612017 0.004737997 -0.0027502312 -0.0030413168 0.001512602 -0.0026652957 -0.0034395123 -0.0013375954 0.0046939296 -0.00066993065 -0.0023149576 -0.002382173 -0.00077241706 -0.0041290238 -0.0034386157 0.00057340495 -0.0029698333 0.0007185405 0.0043514664 -0.0039764796 -0.0033112692 0.0010469906 0.00096034637 0.00088970695 -0.0025436173 0.0043823384 0.0014690637 -0.0010232176 -0.00074016355 0.0009890861 0.0023597141 0.0038853413 -0.003209142 -0.0016460292 -0.005006476 -0.003881393 0.0048032207 -0.004212178 -0.0010539356 0.0022125724 -0.0028842476 0.0037102823 0.0010987244 -0.0028241687 -0.0011092107 -0.0019784176 0.0017429463 -0.0028512948 0.0038686949 -0.002685212 0.001144507 -0.0048851785 0.0036013697 -0.0032723288 -0.00060445187 -0.0010087397 0.0022251133 0.0038662949 0.0016028763 0.0049179876 -0.00074404856 0.0024277687 -0.0023325153 -0.0047380216 -0.0031062642 0.0015067584 -0.001440044 0.00010767304 0.0014637741 0.004134337 -0.0001470246 0.001622986 -0.004978772 0.0004631276 -0.005454418 -0.003490833 -0.0042841444 0.0014397717 0.0044014324 0.003350563 0.003162283 -0.000833211 0.0025240497 0.0042344606 -0.005077069 -0.00039121232 0.005097265 0.002446451 0.0019982005 -0.0022244016 -0.00031046095 0.004872125
malhablado 0.004218389 -0.0019527718 0.004409471 -0.00021055064 -0.00065680005 -0.0018484339 -0.0050315997 -0.0043425383 0.0016489069 0.001008064 -0.004544605 -0.004609656 0.0031689527 -0.0021632777 -0.00027032432 0.001169817 0.0025023115 0.00510028 0.003763211 0.0040480876 -0.003551415 0.0015932678 -0.0044285203 0.0012467415 -0.0010868869 -0.00034768754 0.0027531243 -0.004881948 -0.0021696533 0.0010302135 -0.0040709446 -0.0051207375 -0.0025815265 -0.0009179612 -0.0022152255 0.0017219542 -0.0015578141 0.0031798945 0.0014858643 0.0025758229 0.005678245 0.0037600456 0.0004881787 -0.0063077128 0.0019647782 0.0015752988 -0.00034199326 -0.0015391423 0.0049406854 0.0026640121 -0.0029363928 8.476062e-05 -0.00294924 0.0025719274 -0.0044336584 0.002226028 -0.0033266996 0.0014885857 0.004306486 0.0014611969 0.0033694431 0.0038560748 -0.0023751033 -0.0026123032 0.0009981004 -0.0020658034 -0.0013294155 0.005318234 -0.0037769214 0.0052049784 0.0043413755 0.00083153526 -0.004912592 -0.0028521928 -0.0036821843 -0.0024992651 -0.0025606274 0.002111668 0.0017128814 0.0036501316 0.00056135515 -0.0035151162 0.0016813135 0.0025726373 0.0017592416 0.0015708256 -0.0040013543 0.003407559 0.004698405 -0.00018259414 0.0045236535 -0.0035856501 -0.0018098828 1.7065104e-05 -0.0026363966 0.0018372748 -0.0006319721 -0.0047093276 -0.0037797287 -0.0008128101
hijito 0.0026946594 -0.0015124698 -0.0021504413 -0.00224946 -0.0003782532 0.0016081379 -0.0045345915 0.0011418621 -0.0037186407 0.0038899856 0.0042509404 -0.004283119 0.003195955 0.0013345294 0.0027274883 0.0008760276 -0.00068861316 -0.0027551358 0.0014865341 0.0038561914 -0.0025133595 -0.004647427 -0.00463355 -0.0005441206 -0.0046039564 0.0030696972 -0.004354304 -0.005196359 -0.0026335751 0.0044586826 0.0022409868 -0.000914032 -0.00033220957 0.00027423986 0.0016175639 0.0009551626 -0.0024710763 -0.001583472 -0.0033599178 -0.004290915 0.0025934991 0.00017704468 -0.0020765443 -0.0057803267 0.0016393379 0.0010320666 -0.003071709 -0.0018661886 0.0035467776 -0.00151866 -0.002363842 -0.0034381826 -0.0049296464 0.00054785685 0.0012147129 -0.00450831 0.0048132464 -0.005093999 0.0035179656 -0.0021331878 -0.003709409 -0.0004662548 -0.0006416439 -0.00067101757 0.003415252 -0.0042013275 0.0032215142 -0.0017404438 0.0025211407 0.0030658755 0.00024287622 0.0010188518 -0.0044178106 0.000576753 0.0041726734 -0.0041495673 -0.005156778 -0.0021776848 -0.0013447967 0.0010461777 0.001857189 -0.004375489 -0.002937744 0.004186267 -0.0013027149 -0.0019546333 -0.0026270167 0.00040574823 0.002536088 -0.0047885966 -0.0046474696 0.0037196504 0.0025858076 0.0020873258 -0.0011818081 -0.0020139208 -0.0038383713 0.0033048664 0.0023143403 0.0009993202
chillando 0.0019656406 -0.003832602 0.0049142656 -0.0046926397 0.00065340474 -0.0023869725 -0.0026991586 0.004301943 0.0014903502 0.0048285206 -0.003058925 0.00055467524 0.0021000747 0.0006951172 -0.004081248 -0.0051156306 0.00087725127 0.0045189788 -0.00018668573 0.004445525 0.0016420427 0.0024159297 -0.0030372492 0.0047900537 -0.004931175 0.0038795283 0.0027219823 0.004030237 0.0049140505 0.0043381806 0.0021483877 -0.0046463236 0.0027630066 -0.0030171506 -0.0007698031 0.0007803734 -0.00020242653 0.0041084657 -0.0030008291 0.0029853152 0.0038988073 0.0018485176 0.0011582312 0.0026218756 0.0024233505 -0.0011995416 -0.0029295587 0.00010665906 0.0054787714 -0.0026830076 -0.0039435066 -0.0022521636 0.0015310105 0.0009964216 -0.0026728022 0.0030869395 -0.00087178376 -0.0033885962 -0.0028357469 -0.00023668371 0.00080433884 0.0047009233 -0.0018914063 -0.0034900485 -0.0024564757 0.003073561 -0.0029001012 -0.002923123 -0.004198277 -0.00018487322 0.0037956377 -0.004426369 3.539864e-05 -0.0027240885 -0.0006602591 -0.0036785218 -0.003030373 0.0027253462 -0.00045398035 -0.0031422358 0.0014645015 -0.004647295 0.0018594482 -0.0025344687 -0.0042114514 0.004302097 -0.0024079864 -0.002212538 0.0030481492 -0.0014564665 0.0010471089 0.0048871203 -0.003439797 -0.0048459694 -0.0027077429 -0.00054179376 0.00330341 0.0040296824 0.003395345 -0.00019353344
vociferando -0.005197222 -0.0037889096 -0.0016970156 -0.001878603 0.0005433038 0.0022095577 -0.0019717822 -0.00013975844 -0.0009551202 0.005166548 0.0033428483 0.003989887 0.0005926415 0.0024216096 -0.0014984116 0.0038257646 -0.0046413643 0.00023647326 -0.0024712207 0.0020250897 0.00016165012 0.004595946 -0.0040584086 -0.0024009098 -0.004944776 -0.0002364763 0.0013688004 -0.005300641 -0.0001466865 -0.0017909806 -0.0042168517 -0.00042268957 -0.0035734498 0.004483954 0.0014176273 -0.00039816278 0.0014147451 -0.003063515 -1.01101905e-05 -0.0038930548 -0.0023358446 -0.0024881284 -0.0014109487 -0.0046284464 -0.0041143075 -0.0012140957 0.0023117568 -0.00060030865 0.0030386278 0.0019842056 -0.0053939647 0.0022038235 -0.002145758 0.0010850033 0.0010938471 -0.0014513527 0.0017059334 -0.001394608 0.0041117743 0.0022802746 -0.0043006693 0.0004643488 0.0043986156 0.002698656 -0.00461866 0.0023167622 0.0015455077 0.00040578924 -0.0011548002 -0.0023493932 -0.003055951 7.215693e-05 -5.3587235e-05 0.0021710012 -0.0007178305 0.0031191912 -0.005279119 0.0019012031 0.0019883928 -0.0042980686 0.0026603816 0.0024530434 0.0029530223 0.002618305 0.003791135 0.00072289736 -0.0029553883 -0.0032017648 0.0039043254 0.0039378377 -0.0010386655 0.004454356 0.00016795204 -0.004986964 0.00021056917 0.0007640519 -0.0036386836 0.0050857584 -0.0037662832 0.00073374243
solloza -0.0022023653 0.0032841652 0.0028821605 -0.00032085946 0.0040207496 -0.002702682 -0.004501058 -0.00022188915 -0.0009152828 0.0041687787 0.0008264746 0.0014462755 0.0040642237 -0.0029862127 -0.0038688644 -0.0003088741 0.0017261116 0.002998351 -0.0019347961 -0.001218258 -0.0031836347 0.0022777934 -0.0040321094 -0.0016552294 -0.00498268 0.0012088915 -0.00016557156 -0.0037382303 0.0036833314 0.003843885 0.0018919366 0.0018976061 -0.0018146837 -0.00092462316 -0.0037898447 -0.0033777442 0.00046236953 -0.0025464105 -0.0011272975 0.0051785503 0.0016462059 -0.00062099716 -0.0032835966 -0.0042954674 -0.0048060967 -0.0045878007 -0.0007254331 -0.0022456953 0.00035748424 0.00497309 0.001850912 -0.0038860703 0.002215756 -0.0009937277 0.0008327426 -0.0005608169 0.0035378546 -0.0052337693 -0.0001772774 -0.00065686094 0.0005349439 0.00062371977 0.0007464025 0.0018149107 0.0020309924 0.0014864799 0.0040207184 0.0006845564 0.0029524073 0.0005343315 -0.002655634 0.0024659014 0.0040649655 0.0014327045 -0.0029708857 0.0009384146 -0.0026968594 0.0049173976 -0.004359379 -0.0028542378 0.004106305 -0.0014816459 -0.0048486795 0.0045467922 0.0019917656 6.4985725e-05 0.0031643957 -0.005247808 -0.002305536 -0.0039891414 -0.0030706208 -0.00074569794 -0.00052870717 -0.002324692 0.003995827 -0.0028053762 0.0012927899 -0.004225081 -0.00038261182 -0.0014948972
gime 0.0015566275 0.004175802 -0.0033831531 -0.0040669893 0.004761304 0.0038155194 -0.00256808 4.116718e-06 -0.0017278929 -0.0023833844 0.0026233937 -0.0026552165 0.00400317 0.000921607 -0.0050189993 -0.0022101083 -0.0009057034 -0.00230676 0.0028376426 -0.0029785244 -0.005526569 0.0003446542 0.0038607232 -0.00037701137 0.0018406989 -0.0014145074 0.003114929 -0.0035489567 -0.0028189423 -0.0040432927 -0.00424352 -0.00074607256 0.0029007317 0.0011327218 -0.002807767 -0.0027309142 0.00074801454 -0.0046954015 0.0017678386 -0.0006432181 -0.00039557647 0.0040677255 -0.0021893643 -0.0037661688 0.0011781915 0.001700178 -0.0021422845 0.0009822086 0.0046555274 0.00020307627 0.0014896636 0.0003465905 -0.002216099 0.0010396872 -0.0024031473 0.0014181803 -0.004215408 -0.00075679267 -0.0033746865 -0.004756894 -0.0032972253 -0.0008429752 0.0013628913 -0.0042918166 0.0048961937 0.0038166626 -0.0032894795 0.0026984666 0.0013843903 0.0026500598 0.0036852139 0.0013545225 -0.0024082183 -0.0032936556 -0.0014130375 0.00048520652 -0.003269776 0.001729162 -0.0015255734 -0.0011510167 0.0010342306 0.0017812925 -0.002761683 -0.0043146107 0.0039517414 0.00284762 0.0032648994 -0.0015803658 -0.0012269556 -0.00080227753 0.0037440718 -0.0030571255 -0.005361574 -0.0034505136 0.0017608725 -0.0034597975 -0.0022113817 -0.0045327875 0.0024532096 -0.0033337038
pelotita 0.0045049186 0.0032195838 -0.0039844527 -0.006020086 -0.002997766 0.0029020007 -0.0004770108 -0.0028815179 -0.004664926 -0.0019925311 0.001713186 0.0018152763 0.0031480764 -0.0031272839 0.0005330864 0.0009732509 0.00057844643 0.003726581 -0.0008377038 0.0039435653 0.0008311025 1.9911831e-05 0.0033377884 -0.0033849345 -0.0030935514 0.0009807424 0.00017094178 0.0026816884 -0.0019416321 -0.0027972409 -0.0047263033 0.0015595482 -0.0045647 -0.003217081 -0.0011585453 0.00040868745 -0.0020812291 0.0013957851 -0.0031152542 0.0021510846 0.002577475 0.004634776 0.0012388701 -0.0047403844 -0.00058151066 -0.0012733798 -0.0011808021 0.0036037972 -0.0009529569 -0.00025389757 -0.0043957955 0.004464945 0.00033166946 -0.005296495 -0.0044416534 0.003481146 0.0012991191 0.0037039663 -0.0026295946 -0.0008729367 0.0045994082 -0.002980585 0.0010765247 -0.0005146742 0.0011199518 0.004364223 0.004387041 0.0010083747 0.0019308546 -0.0029194595 0.0032616337 -0.00048272396 -0.0006522745 -0.0043196026 -0.005029906 0.0020896501 -0.005044479 -0.0015080954 0.0029501591 -0.0050084246 -0.005003682 -0.00061864045 0.004247266 -0.005180663 0.0047526797 -0.0039038744 -0.003043189 4.098173e-05 -0.002535733 1.838879e-05 0.003909128 0.002929362 0.0046415348 -0.0011588103 -0.0025608423 0.00043988324 -0.0015047953 -0.0028175279 0.0037735237 0.0023301293
bola 0.0019909733 0.004288133 -0.0040176488 -0.0059889574 -0.0032890136 -0.00010743959 0.0034367766 -0.0050572534 -0.0031419261 0.0022522053 0.004009232 0.004660211 0.0026084452 -0.0021609974 0.0027178419 0.0004004002 0.0044627986 -0.00024082624 -0.0044517033 -0.0039627207 -0.0013791048 0.004899885 -0.0036174024 -0.0031072616 -0.0024650323 -0.0026756811 0.0020562457 0.0007181885 0.0012538459 1.8666033e-05 -0.0021008127 -0.0030578861 -0.0023620694 -0.0034040343 -0.0038292238 -0.0034921612 -0.0032605652 0.00029064593 -0.00485867 0.005244656 0.002445209 -0.0024802743 -0.00352704 -0.0026657444 0.0042976313 -0.0055655274 9.9928584e-05 0.0034170756 -0.0018970096 0.0015588852 -0.0034778535 0.00026505138 0.0031872983 -0.001370824 0.00428005 -0.0040358086 0.0048996015 -0.004498458 -0.00048245912 -0.005156442 0.002820361 0.0042798156 0.0042216624 0.0043606064 0.00041804538 -0.002954628 -0.0022488476 -0.00063838245 -0.004265277 0.0038638867 -0.00043509528 0.002442386 -0.002461057 -0.00067982695 -0.0017395251 0.0036998333 0.0015721307 0.0038073028 -0.0031912185 0.0030144725 0.00010899983 -0.001379825 -8.903094e-06 -0.0026965921 -0.0043759774 0.002662029 0.0020275922 0.00424391 0.00067901384 0.005049569 0.0039076866 -0.0044004777 0.00094385474 0.0012022669 0.0028867458 -0.0037808244 0.003291571 -0.00036230785 -1.2160176e-06 -0.00041036
aullar -0.00020852129 0.0013741136 9.7635835e-05 0.0015850205 -0.0019912766 0.0009839617 -9.473563e-05 -0.0025188383 -0.0025003012 0.0013214444 -0.00089889177 0.0051341113 -0.0014646478 -0.003786619 0.004157377 -0.0054664593 0.0015378403 -0.003316884 0.00032798998 0.00049091346 -0.001770224 0.004214879 0.00092255726 -0.0040170243 -0.0040384526 0.00031217 0.0007945228 -0.0036290465 0.0046189902 0.0021158564 -0.0023732122 -0.004031292 -0.0044882963 0.0046664276 0.0036049534 -0.0027925854 0.0041243187 0.0017176357 -0.0012869034 0.003688347 -0.004083397 -0.00026103912 -0.0036076903 -0.002411231 -0.00243296 -0.0019483854 0.0027665668 0.003028793 -0.002790427 -0.00011584853 0.0016101839 0.0027131482 -0.0022117428 -0.0036692005 -0.00022141318 0.0015175901 -0.0022488679 -0.0002199255 0.002989015 0.0012606261 0.0022560663 0.0019575485 0.00018139117 -0.0046477774 -0.0017915454 -0.0017998578 0.0043995874 0.0019473227 -0.0033691642 -0.0026620522 0.0034684008 0.004683652 0.0042414456 0.0035063387 -0.002645811 -0.00045650947 -0.0023517313 0.0022346983 0.0048892014 -0.0034261802 -0.0030601015 0.0048998045 -0.001323506 0.0018170931 0.0009944066 0.004226856 0.000921761 -0.0029384787 -0.0043330574 -0.0030736737 0.0033234258 0.0016024807 0.0019137375 -0.0010227953 0.0028294632 -0.0046611587 0.0012646802 0.0019931495 0.0035270483 0.0026097954
mujer 0.004736463 0.0026618799 -0.0015729209 -0.0008055714 0.0041874014 -0.002090267 0.00050954154 0.003800247 0.0020078795 -0.0034216724 -0.0021633264 -0.0011233026 -0.0037761107 0.004303132 -0.0005870287 -0.004116064 0.0014406957 0.0019324976 -0.0027906408 0.0009947243 -0.0024958355 0.004730646 -0.003888631 0.0045490945 -0.0013736052 -0.0021951294 0.00080183236 -0.00016865907 0.0025589294 -0.00310233 0.0035328115 -0.0033776592 -0.002556848 0.00321972 -0.0022211757 -0.003201414 0.0038632124 -4.268446e-05 -0.0042891726 0.0007267054 0.005980075 0.0010159052 0.0025056265 0.0017612425 -0.0018385178 -0.005363852 -0.0005702896 0.0010915167 -0.003059626 -0.0037087554 -0.0026585215 -0.002132788 0.0027623554 -0.0056189504 -0.0014495297 0.00048222244 0.004877047 0.0019366689 -0.0016062139 0.0031168289 0.000346667 -0.001996738 0.00057462463 0.004171788 0.0045593027 0.0024531023 -0.00406152 0.0024477402 0.0002706166 0.0035099166 0.0025408706 0.004830488 -0.0020502002 0.000175533 -0.0020937526 0.0042131986 -0.0046199053 -0.0008848499 -0.0029562365 -0.0048913993 -0.002582166 0.00049108587 -0.0008096063 -0.0012700893 0.0052786293 -0.002613183 -0.0042492007 0.0015896786 0.0001222435 -0.001341886 -0.001866667 0.0017247936 0.00042235083 -0.0028294192 1.1560387e-05 -0.0022379234 -0.00566373 -0.0031119718 0.0007529105 0.002351257
pasará -0.005134247 0.001289036 -0.00053682167 -0.0037960776 0.0022261573 0.0029201023 -0.0015072417 -0.0028388263 -0.0042325296 -0.0020968106 0.0039457176 -0.00048284646 0.0006456599 -0.0033997942 -0.0027596836 -0.006256139 0.004677031 0.0037382462 -0.0023759017 -0.0019901986 0.0030754646 -0.004659028 -0.0014492846 0.00059984176 -0.0044496176 -0.0055328133 0.00037504712 -0.0050881663 -0.0016827465 0.0013349323 0.0041078804 -0.0023024357 -0.004778532 -0.0020340022 -0.0032748627 0.0018447888 0.0014695922 0.00074469653 -0.0007093413 0.0017367585 0.0005884723 0.002253085 0.0030181177 -0.0014582704 0.00030152663 -0.0014541965 -0.0016441799 0.0011318442 0.004792764 -0.002417881 0.0028346768 -0.0014684213 -0.00334211 -0.0025796168 -0.004761435 -0.0016939361 0.0047782864 -0.000918002 -0.0003856841 -0.004040071 -0.0020516245 -0.004183917 0.004249804 0.003933318 -0.0041593006 0.0008017132 0.004598746 0.004107458 0.0048551615 0.002361286 0.0031379021 0.0012040702 0.0028087494 0.0010615962 -0.00011524606 0.004176618 0.003998226 0.0057600345 0.0022837494 -0.0013299767 -0.003285988 -0.00095949636 0.0015746822 -0.00096622406 0.0041589555 -1.2300747e-05 -0.0011758966 0.0006974897 0.0038283768 -0.0017915638 0.0010615566 0.0013437133 -0.0028236469 0.004306703 -0.0017528944 -0.0017901489 -0.0043066675 -0.0027704102 0.0023075533 0.0020409743
sucede -0.0005681686 -0.005144701 0.0012998112 -0.006287665 -0.0021572995 0.0050661475 0.0015503092 0.0020113287 -0.00029167556 0.0025427525 0.00023516678 -0.002134251 0.004938452 0.00067412335 -0.0054893396 -0.0035162407 0.002085326 0.0022269078 0.0022259722 -0.0005697045 0.00047350518 0.004646871 -0.0031688018 0.0017331423 -0.0050974586 -0.0017616658 -0.0034932955 -0.005299055 -0.0018479684 -0.005128156 0.000343059 -0.004616289 -0.0035334544 -0.0033416266 -0.00095388293 -0.0024724896 0.0020779325 -0.0013226618 0.0029219557 0.0009807935 0.003932016 0.001805236 0.001749282 0.0019212468 -0.0031574033 -0.0020777746 0.000877821 0.0031953799 0.0045370474 0.0041511944 0.0039702356 0.0014192071 -0.0039641075 0.0028497158 -0.0025088277 0.00088951556 -0.0023473355 0.0007696283 0.003934936 0.003377308 -0.0046443045 -0.0011598875 -0.002603329 0.0016014773 -0.0004965854 0.0018352156 0.0015685961 0.0033505233 0.0026348291 0.0011718246 -0.0028656938 -0.003164758 0.0019906468 0.0015903255 -0.0049793483 -0.0028248236 -0.0015344095 -0.0010798746 -0.004801479 -0.0019002181 0.0038714823 0.0011011922 2.4024475e-05 -0.0014910947 -0.002015059 0.0023800174 -0.0017714524 0.0013856526 -0.0048889294 0.004710583 0.0024446247 -0.004634426 -0.0028596586 0.00070703274 0.0027508023 0.0023696925 -0.0032266935 -0.00062183756 0.0022135517 0.0018539896
alaridos 0.004447188 -0.00521937 -0.00435028 0.003716095 0.0017452689 0.0025413865 -0.0049650855 -0.0004453281 -0.004613638 -0.0025655737 0.0018964258 -8.292821e-05 -0.0008579349 -0.0045991293 -0.0008891894 -0.001970194 -0.0009883541 -0.002241708 -0.0035364598 0.00019001796 -0.0033360862 0.00045807543 -0.00091234915 0.004424604 0.0024271077 -0.0031282161 -0.0026953276 -7.5578864e-05 -0.004399683 -0.0009950168 0.0025782557 -0.00087630056 0.0016500236 0.0002702402 0.0033564554 -0.0020386493 0.0033458543 -0.00500304 0.004251 0.00016673571 0.0028182224 0.0033950247 -0.003497287 -0.003557725 0.0011408557 -0.0032746997 -0.0032618686 -0.0013866255 0.0048099766 -0.0015346259 0.0029259974 -0.0011265781 0.00027212565 -0.00035856658 -0.005566069 -0.001385472 -0.0017242238 -0.0031361415 0.004797323 -0.00014501032 0.0020650115 0.002311412 0.002102585 -0.004074756 0.0021513726 0.0056688706 0.0027625004 0.0007125361 -0.004803923 -0.0025341592 0.0036790706 -0.0010158743 -0.0041037546 -0.0013843743 -0.000765924 0.0029421858 -0.004736867 -0.001490439 0.0041249213 -0.0022545462 -0.005033728 0.003682623 -0.0007678656 0.002198649 -0.0019100087 -0.003999042 0.0032158375 -0.004173948 -0.0020276844 -0.0021509193 -0.0013627516 0.0025668212 -0.0029755654 -0.0039229435 -0.0032766452 -0.004485558 -0.002225754 0.002707046 0.000991372 -0.003208218
chillidos -0.005140569 0.0023738649 0.004261891 -0.0061638495 0.004010887 0.003563289 -0.0026558388 -0.003910032 -0.00027178787 0.004338994 -2.0026939e-05 -0.0005976168 0.0009117415 0.0039910018 -0.004900804 -0.005797322 -0.00027681852 0.0034553162 -0.0052671763 -0.0010024486 -0.0032244106 0.0014311832 -0.0043277945 -0.0035366826 0.0042607277 -0.0036104685 -0.0032514427 -0.005571842 0.004672691 0.0030932087 0.0039167195 -0.002152614 -0.004178213 0.0039927107 -0.0017572157 -0.0017600027 0.0024183912 0.0032017794 -0.0027085512 -0.0018104895 0.0019117993 0.001542347 0.000945066 -0.0024115115 0.0017942163 0.0023851786 0.0019496259 -0.0015705806 -0.00072209176 0.00056548236 -0.001497973 0.0031396395 -0.0017582264 0.0024315745 0.0039630197 0.003494027 -0.001282028 -0.0005729996 0.005732794 0.0043654097 -0.0033234728 -0.0031819737 0.0022686801 -0.0035726316 -0.0021382633 0.0054463116 0.0041777417 0.0055158185 0.004225547 0.00479859 0.0012515164 0.00069417607 0.0012179244 -0.0038852813 -0.001160914 0.0032863223 0.001169135 0.0054346127 0.004414101 0.0015319261 0.0009847203 -0.004837334 0.0035712144 0.0042666756 0.0051874835 0.0020151353 0.0004495401 0.0025366182 -0.0021290611 0.0004397573 -0.0039099883 -0.0024718954 0.0010309843 -0.0010443414 0.00437586 0.0047937515 -0.0015863824 -0.0023312636 0.0014182186 -0.0028529977
rubito 0.0009564371 0.0012529815 -0.00018529005 -0.0024659086 0.0029930256 0.00062174344 -0.0010571711 -0.0037170134 0.00053808314 0.0031575854 0.004428193 -0.00021925262 -0.0042115473 0.003744515 0.002821898 -0.0052984837 0.0047290013 -0.002311117 -0.004930796 0.0043001003 -0.00017473382 -0.0035844126 0.00016765967 0.004406992 0.003931026 -0.0017856293 -0.005017334 -0.005689379 -0.0029638335 -0.0021534448 0.0027419222 -0.0011050985 -0.0039415695 0.00012958281 -0.004221336 -0.0025816122 0.0017484919 -0.0044870013 0.0005730222 0.0015461156 0.0011247605 -0.000952198 -0.0024167257 -0.0062052878 0.004763886 0.0027171245 0.003622129 0.0041446467 0.0023889048 -0.002768368 -0.0041372892 0.0012950711 0.0023244114 -0.00024876487 -0.004607058 -0.0029847494 0.0015990635 -0.000828248 0.0026476167 -0.0023245506 0.004306098 -0.002327127 0.0028541216 0.0031465904 -0.0034001817 0.004825866 0.0008701214 0.002807069 0.003114093 -0.0010097262 -0.003233623 0.0029730764 -0.00050498336 0.003262546 -0.00095876167 -0.0028556897 -0.0015472315 0.0016395694 -0.0021029357 0.0044449605 -0.004618613 -0.0045524496 -0.002806073 -0.001717805 0.0031554492 0.0022269485 0.001934064 -0.0020526794 0.0003338208 0.0015343531 3.8605853e-05 0.0010260761 0.0040444336 0.0033105933 0.00414799 0.0023835902 -0.0024716086 0.0033463447 -0.0035942772 0.0023006855
canijo -0.0038914324 -0.002759348 0.0046203374 -0.0010227878 -0.0034816961 -0.0026599814 0.002770342 0.0030877453 -0.0012421851 -0.001488763 -0.0011192517 -0.0031995785 0.0016578551 0.003649761 0.0017728212 -0.0036308744 0.004890126 0.0013451951 -0.0018261136 0.0018159796 0.002972066 -0.0036284851 -0.0037342864 -0.0017093825 0.0017365301 -0.002466016 -0.0007147009 0.0031776056 0.0013949625 -0.0037570372 -0.0021784545 0.00074573583 0.0018220114 -0.002895998 0.0037213247 -0.0010485224 0.00016980302 -0.0031424286 0.004793935 0.005529928 0.0038484337 -0.0045754616 -0.0037273841 0.0011307856 0.00452746 -0.0025959592 -0.003876893 -0.003782465 0.004434062 0.00411756 -0.00026140708 -0.0022183286 -0.0045012585 -0.005197829 -2.614448e-05 -0.002107009 0.0041392497 -0.0028013075 0.0005912882 0.00023816613 0.0006382157 0.0032435916 0.0038642895 -0.0021414824 -0.00126363 -0.0032838748 -0.003936091 -0.003999288 0.0028945205 -0.0019112208 0.004192895 -0.0011884914 0.0006102028 0.0038634199 0.0014497245 0.0037328291 -8.018069e-05 -0.0015233256 -0.004272989 -0.0047736727 -0.004196827 0.004502319 -0.0055466266 0.003653339 0.0013447374 -0.0033484143 -0.0027061813 -0.004421868 0.0027629526 -0.002943053 -0.004272748 -0.0047513964 -0.0036955064 0.0016817225 0.0022735153 -0.0033984424 -0.004190405 0.0020598248 -0.0043541184 -0.0018004318
obeso -0.0012589274 0.0017981167 0.0027530366 -0.0038581833 -0.0010659212 -0.0023152803 -0.0023605165 7.004047e-05 0.00052907155 0.0042181085 -0.0038683286 -0.00024212734 -0.000377824 0.0031703403 0.0006788518 -0.0007199433 0.0027173995 0.0009796576 -0.0057422034 0.0015566377 -0.0048206043 -0.0014783324 0.0017975341 0.00079697283 -0.004903253 -0.0049786647 -0.0012293557 0.0027292732 0.0045251427 -0.0033796735 -0.0019416435 -0.00026302086 0.00049312477 -0.0014292562 0.002816997 0.0032251508 -0.00037681818 0.0009376812 0.0038370662 -0.0033400222 0.004443043 0.0014376757 0.0008760302 0.0024857156 0.0044754785 -0.004848487 0.0046861274 0.00044848997 0.004114772 -0.004510246 -0.0032634304 -0.0031160228 -0.0034272664 -0.0054462207 -0.0033177698 -0.0014795396 0.0034992706 -0.0043914686 0.0009766927 -0.005300876 0.0011970635 -0.0030963116 0.0037851979 0.00048468576 0.0033973327 0.0057502496 -0.0006114428 0.00017751934 0.0026389365 -0.0008994383 -0.0009675264 0.0034646043 -0.00035178196 -0.002302925 -0.004908218 0.0054384633 -0.0042781066 -0.000970669 0.0013144036 0.0044764224 -0.0014529263 0.0012842757 -0.0041771885 0.00085350825 0.0026023046 -0.0029574076 7.0932285e-05 0.001688063 0.00016596976 0.0035487942 0.0031478114 0.0042663864 0.0028950241 -0.0027309428 0.0014589477 0.0050899466 -0.0035792766 -0.0033891122 0.0011377577 0.0010961432
grandote -0.0004194153 6.613408e-06 -0.0038550983 -0.004440287 -0.004203353 -0.0017557004 0.00091788906 -0.00013504039 0.000698035 -0.0023745925 0.0032839 -0.0029036184 0.0030162267 0.0017842911 0.0013268882 -0.006232088 -0.0010957594 0.00013333623 -0.005628631 -0.0023215087 -0.0052623735 0.0019720078 0.0043603196 -0.0017881218 -0.0028581552 0.0032442296 0.00028826852 -0.0015533052 -0.001136559 0.0011136114 0.0035744903 0.00022012842 -0.0023220927 0.0037775864 0.0014739686 0.00067754014 -0.0031789024 -0.005168277 0.00037067963 0.005795761 0.004527587 -0.0013530292 0.0013826869 -0.00589224 -0.0041962545 0.004046098 -0.0014674403 -0.00072120497 0.005354504 -0.0044022654 0.0031252936 0.0020445306 0.00024068893 0.002880631 -0.005607205 -0.002159137 -0.001450231 0.002675563 0.0017585062 0.0027119743 0.0008146659 -0.0006007669 -0.0034224137 0.0004469953 -0.0031817893 -0.0015039277 -0.0029373893 0.0051311725 -0.0031583554 0.0039468217 -0.0016339753 0.002880402 -0.002454731 -0.0045572105 0.0013922168 0.0043815053 0.0004183536 0.003446604 -0.001982881 -0.0015438986 -0.001964033 0.0027797178 0.0018342768 0.001960357 0.0037108706 0.00090274285 0.00271684 -0.0029360927 -0.0015274731 0.005114083 0.0024266727 0.0009916128 0.0022555715 0.0019860095 0.004257881 0.0046776836 -0.0011501836 0.0050574723 0.004942087 -0.004937578
vociferan -0.0029021043 -0.0035772296 -0.00077804667 0.0028762806 -0.003978984 0.0030926508 -0.0029245464 0.0035987815 -0.0024303743 0.0005263761 -0.0023959284 0.0034376376 0.002539927 0.0052585835 0.0011091232 -0.005579397 0.0012728281 0.002980474 -0.0003118339 -0.00023784644 -0.0036253077 -0.0024156915 -0.0015396853 0.0039070956 0.0031756598 -0.005553286 -0.0027801772 0.0029941103 0.00073255564 0.004487402 0.00304915 -0.0050940327 -0.004989053 0.001908169 0.0009129252 -0.0031173017 0.0012390135 -0.003226992 -0.0019422108 0.00435705 0.0023366457 -0.00092830847 -0.0017354435 -0.0026478968 -0.0016744863 -0.005479527 0.00016768106 -0.0033522076 0.001245152 -0.00046426352 -0.0010484714 -0.0043866495 -0.00067928585 -0.000655395 0.00050403655 0.0010289036 0.00488986 0.0020533272 0.0051278896 -0.0030323605 -0.0005506054 -0.0042336313 -0.0034810514 -0.0025101462 0.0022248595 0.0010782843 -0.002098585 -0.0015267304 0.000294493 0.0049339817 0.0033821822 0.0051257215 0.0015356997 0.001248403 0.0006584614 -0.0035752521 -0.00030378127 -0.00050316134 -0.00067636446 0.003625057 0.0030108488 0.004683064 0.0043618334 0.0016581871 0.0015145525 5.630063e-07 0.0045874887 -0.0052970555 -0.0011412858 -0.0014572099 0.0010571784 0.002676965 0.0005803118 -0.003625033 0.0026162276 -0.0027326674 -0.0037363148 -0.004817509 0.0028654754 -0.0020801227
refiera 0.0005186848 -0.002020448 0.004574833 0.0007892504 -0.0046848585 0.0032039906 -0.0033514232 -0.00473979 0.0008053926 0.00091496255 -0.0016918902 -0.00010934015 0.00077497977 0.0022617383 0.0014685988 0.0029187617 0.0019508637 1.3550163e-05 0.0006457816 -0.004222569 0.003700416 0.0025103793 -0.0013494429 -0.0009199427 0.004167173 -0.0014020287 -0.00013038937 -6.6748635e-06 0.0037456108 0.0044401386 0.0028291855 0.0007866919 -0.002380272 -0.0030948464 -0.0023708865 -0.0021883976 -0.0038201811 0.0020005284 0.003444056 -0.0013246423 0.004883762 0.0042564105 -0.0040611867 -0.0056962264 -0.0008281683 -0.002639006 0.0050667976 -0.004377592 0.0019259605 0.00028223253 0.0013984529 0.0051488164 0.0003716031 0.00037581226 0.00045523333 0.0024931026 -0.0012117936 -0.0017624832 0.0010274496 0.0025949792 -0.001250301 0.00012730583 0.0042155017 0.00043487418 0.0016127649 -0.0013458445 -9.062796e-05 -0.0035511046 -0.00072411896 -0.0016187034 0.00041567918 -0.0044454155 0.0023727263 -0.0034647216 -0.0024949282 0.00020596919 0.0018532552 0.0021737346 4.7125508e-05 -0.0011389107 -0.0033734282 -0.0013275373 -0.0025830446 -0.0033273813 0.0031025424 -0.0020018863 -0.001133764 -0.0025016982 -0.003085467 -0.0027104954 -0.002483176 -0.0049650753 -0.0040543345 -0.0024092563 -0.0018642582 0.005093502 -0.0033577287 0.0033794877 0.0022362762 -0.0012475931
críos -0.0035052982 -0.00080589566 0.0028351462 -0.005775059 -0.004587289 0.0031394772 0.0010792868 0.0012522261 0.0035133502 -0.002392958 -0.0031424116 0.0010244467 -0.0012841736 -0.0018565713 0.0012477809 -0.006563868 -0.00071315997 -0.003817959 0.0031798873 -0.0018393245 -0.0041485606 -0.0044730413 -0.005603269 0.002925844 -0.0045260065 1.4164413e-05 -0.0020283854 0.0034958946 0.0027062756 -0.004699605 0.002061846 0.0028243759 -0.00079536537 0.004423165 0.00013494118 0.0007505486 -0.0028853698 -0.00074334926 0.003955393 0.0029403616 0.0057353848 0.0015576461 -0.0021627943 -0.005744356 -0.0019357641 -0.0014034231 -0.00018699982 0.0005805423 0.0053197253 0.0034211124 -0.0016168767 -0.001916774 -0.0035586162 -0.0058641657 -0.005321946 -0.0024269007 0.00043331648 0.0036248313 -0.0001394389 0.001305331 0.002536908 0.00011537058 0.0025447626 -0.0033031558 0.0035736377 -0.0020588278 0.0052206083 -0.0030886927 0.0002851714 -0.0025106438 0.0015305276 0.0042960043 -0.0015709655 -0.0053440984 -0.0007856428 -0.00035478882 0.004205943 0.00446863 0.0025244842 0.0015213996 -0.0029803717 -0.0037228856 -0.0047956645 -0.0045188586 -0.0026868053 0.0047549237 -0.0033236926 -0.0005460544 0.0014119194 -0.0008947358 0.0041152914 0.0037151694 0.0015551109 -0.0018512374 0.0053964257 0.0036602074 0.0026769307 0.0019233949 0.0006777999 -0.0050223474
chiquillos -0.0044591962 -0.0026743226 -0.0035016728 -0.0033550134 0.0048897443 1.151459e-05 -0.001594101 0.001286328 0.004567101 -0.0037703202 0.00015991634 0.004648835 -0.0020122973 -0.002045577 -0.0027766821 0.0004229716 -0.0015668676 -0.001777143 -0.0050719506 -0.0016227547 0.0030423873 0.0011908106 0.0034426742 -0.004200645 0.0040266174 -0.0038215434 -0.0017472758 0.0030799839 0.0039554983 0.0006785463 -0.0015961947 -0.0019493361 0.0023061947 -0.0045024063 0.0029627825 -0.0022795892 -0.0021951662 0.0032781155 0.0018143929 0.0032836297 0.0050209817 -0.00062489073 -0.004440744 0.0023656976 0.004359019 0.0028358516 0.0031656667 0.0019043416 0.0011938722 -0.0029299732 0.0018895734 -0.0041269525 -0.003527587 0.0036459763 -0.0033839622 -0.004437084 -0.0003588038 -0.0040022535 -0.002020787 -0.0018047862 -0.0015500161 -0.0034832365 0.0049952646 0.00069173804 -0.0013551988 0.0028291726 -0.00015538245 -0.0041858917 0.0034941132 0.0019149818 -0.0037677572 -0.00095280464 -0.005226074 -0.004964 -0.0055828285 -0.0044206725 -0.00080949283 0.00017391627 -0.0031386006 -0.0021364123 0.004149881 -0.0007070456 0.0006458982 -0.0037357057 -0.0035685438 0.005085654 0.001178981 -0.0007188977 0.0015941435 -0.004282415 -0.003067397 0.0015969301 -0.0036765095 0.0030136383 -0.002129813 -0.0020131208 -0.0024224324 0.0036483586 0.0017679018 -0.004698099
diminuto -0.0053399936 -0.002517139 -0.005166939 1.571729e-05 0.00087968167 0.003860904 -0.005241424 3.923372e-05 -0.0029941446 -0.004511789 0.0032033627 0.00030165064 0.00041222843 0.0051272428 -0.0004902704 -0.005485387 0.0052696466 -0.0007260038 -0.0025337397 0.003741027 -0.007268335 -0.0029823356 0.0037892987 0.0036954968 0.003368576 -0.0032459276 0.0012998374 -0.0061397143 -0.002477474 0.003547084 0.0027538352 -0.005291774 -0.005025292 0.0024689494 -0.0034390055 -0.00031754168 -0.0047397525 0.0016821101 0.004290159 0.0018951969 0.006063923 0.00030294905 0.0025680498 -0.0063163764 0.0018249794 -0.0009910971 -0.0036034524 0.003201348 -0.002103104 0.0042523723 -0.003896411 -0.0019409902 -0.004381055 -0.0037648284 -0.0058179684 -0.0005107884 -0.0012733199 -0.002303799 0.0052340156 7.2487266e-05 -0.0002533133 0.0046313 0.0046419743 -0.0043874243 0.0020454216 0.0038297947 0.0025926656 0.002212022 -0.0015708038 0.005334525 -0.002133021 0.0025679409 -0.006318868 -0.0051450143 0.0016381709 -0.0018334769 0.00042141153 -0.0010998537 0.0037365807 0.0034399426 -0.0042262045 0.004895551 0.0013734484 -0.003690582 -0.001451098 0.0030397773 -0.001435062 0.0013738853 0.00024062276 0.0043252534 0.0027239711 -0.0033427237 -0.0056169014 0.0025683863 0.0045000687 0.00481213 -0.004759106 0.003538464 -0.0047891303 0.0044549257
minúsculo 0.0030791194 -0.0052102287 -0.00046135756 -0.0065448903 -0.0024618076 0.0002444693 0.0013292558 -0.004310208 0.0039762883 0.002792984 -0.0028347608 0.004687126 -0.002097307 -0.00092864485 -0.0039611096 -0.0054324954 0.0048181186 -0.0028269175 -0.0021532804 -0.00091568386 0.0025101474 0.0001872492 -0.0009138257 -0.0021961057 0.0032790154 -0.0058351643 -0.0048874416 -0.0013932701 0.0049720234 -0.0018569581 -0.0016467274 -0.0043859766 -0.002110994 0.003997129 0.0009375043 -0.0050740577 -0.003022083 0.00057261036 -0.0023470337 -0.0038097037 -0.00035038523 0.0049631563 -0.0032349892 -0.00103431 -0.002429124 -0.0053866818 -0.0023428209 0.005395614 -0.00011875612 -0.0033975223 0.0021878327 0.0038867316 -0.0048488444 0.001602265 -0.002365134 0.0037597255 0.0039086654 0.0019160481 -0.0026015928 0.00026295483 0.002519754 -0.0040111616 0.0035518277 -0.004434521 -5.810787e-05 0.0010744677 0.0042241802 0.00027634756 -0.0043033054 0.0050602765 0.002344942 0.0053726295 -0.005374974 -0.0023891916 -0.0017829905 -0.0002850493 0.0016109162 0.00097189366 -0.0012619139 -0.0017244311 -0.0007509058 0.004718678 -0.0009318971 -0.005608869 0.00515814 0.004868222 -0.0005113202 -0.00358936 -0.0026958785 0.0035005836 0.0021895973 -0.0010611075 -0.0036057637 0.0014348703 0.004737208 0.0051088613 -0.0039670714 -0.0033631322 -0.00083380856 0.0014983768
