33 100
grita -0.0046637543 -0.0030151054 0.004705473 -0.0027246308 0.0024985103 0.0014856908 -0.00065782847 0.004096213 -0.003951945 -0.0015863236 0.005143192 0.0012174336 -0.002760055 0.004586566 0.0041218493 -0.004061836 0.0039050253 0.0015646501 -0.0045288443 -0.0013632983 0.002100252 0.0024780633 0.002330986 0.0016914599 -0.00046698062 0.002894703 -0.0009729942 0.0039176526 0.002244438 -0.0032730086 0.0013891656 0.004132831 -0.0018328552 -0.00284301 -0.0015351635 0.000671349 -0.0045133326 0.002865507 -0.0020342744 0.0027568927 -0.001908039 -0.0039001126 -0.0048227077 -0.0042549227 -0.00019541735 0.002261845 -0.00023947045 0.004521752 0.0041027786 -0.0005441436 0.0018414923 -0.0039456016 -0.0046003372 0.0042539597 -0.0038499099 0.0008318652 0.001041886 -0.0038580573 -0.0020488019 0.0020919133 -0.0017887736 -0.0006466441 0.0023567723 0.0014362456 0.0004655973 0.00420296 0.0049876873 -0.0008407304 0.0032530106 -0.0022795508 0.00471346 0.0013695776 0.0043323855 -0.0014744976 -0.0031369994 0.002027859 0.0034587712 -0.00013488064 0.001809997 0.0027737368 0.0030074543 -0.0044472143 0.0040783486 0.0007160674 0.0027885952 0.0039869267 -0.0030490446 -0.0021232795 -0.003419737 0.002678801 0.00046240145 -0.0010736933 0.0032247715 0.0021889035 0.0006631051 -0.0049346895 -0.0008659914 -0.0046253805 0.004342485 -0.0012109501
hermano -0.0005286647 0.0024872154 -0.0037456655 0.000820887 -0.002044599 0.0041378196 -0.0019492066 0.0016271069 0.0006864308 -0.0050207092 0.0026806602 -0.0016699363 -0.0015266349 -0.004432503 -0.0016903671 -0.00028707986 -0.00408554 -0.003357476 0.0041726376 -0.0036245643 0.0026971372 -0.00074317754 0.0011133398 -0.0017081571 0.0037910468 0.004109871 -0.0045936573 -0.0049371463 0.0046792496 -0.00050428754 -0.0012895139 0.004258652 -0.00522852 -0.00088086794 -0.0042908653 0.0024997687 0.0019944282 -0.0025352947 0.0013240977 -0.00071184215 0.004910597 -0.0050296253 -0.00074245635 0.0030856081 0.0047617704 -0.0013570284 -0.0046523265 0.0031673212 0.0008994731 0.0016385108 5.736567e-05 -0.000389662 -0.0036677963 0.0021494431 -0.0040668147 0.0005359272 -0.0018197863 -0.00056191394 -0.000710711 0.00092578836 -0.0050688535 -0.004628676 0.0036440191 0.003778855 0.0019303268 -0.0051653073 -0.0021357154 -0.0023250037 -0.0029577687 -0.003203189 0.002271352 -0.0029661455 0.004245309 -0.0047290204 0.0012160518 0.0038612422 0.0045085642 0.003736783 -0.0048431316 -0.0028382728 -0.0034717987 0.003973193 0.005224175 -0.00032022523 -0.0023266634 -0.0027036406 -0.0007358784 0.0012715588 -0.000449728 -0.0028666295 0.0037899346 -0.0013793528 0.0040065725 -0.0038874242 0.0004042589 0.0035953466 -0.0041757133 -0.0041251597 -0.003801807 0.0015217277
griton 0.0016011365 -0.001627532 0.0014209474 0.0019001545 -0.0039951284 0.00342575 -0.00100194 0.0038903914 -0.0030185995 4.987063e-05 0.0008475104 -0.00067966676 -0.0046545025 -0.004625193 -0.0009599182 0.0034183308 -0.002034331 -0.0022594235 0.0038595353 -2.550011e-05 -0.0036077576 0.0015138588 0.0015402406 0.0027912764 0.00020197096 0.0013158348 -0.005048558 -0.0026948713 -0.0009886519 -0.00066806714 -0.0026337435 0.0015566489 0.0025222457 0.004294872 0.004844254 0.0020091494 -0.004635704 -0.001431657 -0.004648063 -0.0046212743 0.001316151 0.0023535767 -0.0033642321 0.00044466797 0.0041374224 -0.0023001155 0.0016343963 -0.002859757 0.004344922 0.0012865239 0.003939214 0.00032036632 0.0035332139 0.002813 0.0019318366 0.0028594392 0.0027389345 -0.0005107212 0.0033334831 -0.00078677485 -1.8481858e-05 -0.00068055803 0.0023779585 -0.0026397752 -0.00372777 -0.003411994 0.004007573 -0.0048066326 0.0009545625 -0.00215789 -0.004566096 0.0019768951 -0.0044932724 -0.004911163 0.0017888946 0.00012305444 0.0036388498 -0.00033506085 -0.0034114898 0.0026942678 0.002880743 -0.0021681795 -0.0010184343 -0.0018980628 0.0012026991 -0.004203526 -0.00053538947 -0.004237036 -0.0031668625 0.0023895756 0.0015203599 -0.001625609 -0.001515903 0.0013980585 0.0012743793 -0.00027517474 -0.0037012305 0.0010297197 0.0027473907 -3.5278834e-05
hermanito 7.1791965e-07 0.0045438814 0.0026269818 -0.0025001175 0.0007562417 0.003477776 0.0045494125 -0.0017329081 -0.0026664585 0.0007238493 0.0001725872 -0.0026216896 -0.0036610928 0.0034409487 0.0023085237 -0.0010767609 -0.0027617265 0.0010995234 0.0038437028 -0.0005482815 -0.003727982 -0.00068998797 -0.004243054 0.0012515449 -0.0037344394 0.0010401784 0.004775108 -0.00247192 -0.0010011517 -0.001343915 0.0046014967 0.0013465743 0.0016192043 -0.0034546137 -0.0049646725 0.0023917018 0.0011338856 0.0043857177 -0.0013508328 -0.0034449834 0.0020760228 -0.002470396 -0.0034603905 -0.003294769 -0.0014532489 -0.004782406 -0.005087519 -6.508326e-05 0.0027584676 -0.0016224525 -0.0024601012 0.0039181695 -0.0035902255 0.0038183215 0.0016535029 -0.0043198694 -0.0036551948 -0.0044332803 0.0046703327 -0.0019524272 0.004344312 -6.995688e-05 -0.0014000068 0.0016679231 -9.725687e-05 0.0013030983 -0.0039421595 -0.0034311907 -0.0019922897 -0.005004106 -0.003233077 -0.003165256 0.0013860613 -0.005117943 -0.003939188 0.00016805965 -0.003942534 9.9274126e-05 -0.0010538682 0.00071930146 0.00039641783 -0.0006449447 0.003009284 0.00048189814 0.0049465387 0.00117524 0.0027318103 -0.0002193986 -0.0010183353 -0.004347448 0.003031131 0.0017961536 1.52486455e-05 -0.0019991966 0.0022011276 -0.00284621 -0.00057664537 8.2836166e-05 0.0033012358 -0.00021838062
gritando -0.0035594192 -0.0035738454 0.0020262583 0.002281795 -0.00044148826 0.0004096677 -0.0023460672 0.0043368833 0.002459462 0.0035032155 -0.004229493 -0.0022775691 0.0026362753 0.0021718058 0.00092970807 -0.001344018 0.0015307759 0.0011872451 0.0007937007 -0.0019198878 0.0011426389 -0.0018693054 0.0011191787 0.004970117 0.00079622626 0.0034282424 -0.00096557866 0.003828784 -0.0046324045 0.0034995778 0.004521867 0.0009020838 -0.0029735193 -0.00038688458 -0.0028466585 -0.0007270539 0.0046091536 -0.004630056 0.0034719438 0.0030332964 -0.002435958 -0.00063679635 0.0028517623 0.00017039024 -0.0005906784 -0.0044032773 -0.0016838693 -0.0032621778 -0.0015792238 0.0012764763 -0.0030654743 -0.0022192406 -0.0018444031 -0.0028386328 0.0009361564 0.005160376 -0.0036242565 0.0044981954 -0.0030567818 -0.0002767827 -0.0029489964 -0.0030840125 -0.004802915 0.004785671 -0.00381058 -0.00430864 -0.0022159838 0.00383761 -0.0019603572 -0.003082502 0.0030175948 0.0025564004 0.0021111928 0.0039068703 -0.0032074251 0.0019344697 0.0035748768 -0.0031231032 -0.0022128702 -0.0045608506 -0.0050125713 0.0008521933 -0.0011236676 0.0031319354 -0.0016271038 0.0021093595 0.004310423 -0.0025957357 -0.0039441832 0.0018356025 0.0017882441 0.0016546921 -0.003927244 -0.0010721651 0.0035205637 -0.0039147963 0.002527724 0.00403192 0.003909655 0.0026979048
llora -0.003099104 -0.0021373637 0.0032891755 -0.0010864277 -0.0013032043 -0.00019406239 -0.0029116347 -0.003562235 -0.004647439 0.0015852768 0.0020723226 -0.0042572306 -0.0014838197 -0.0041706995 0.004643667 0.00053248816 0.003143175 0.0025478892 0.0035984106 -0.0027039326 0.004205848 -0.003653389 0.0009273872 0.00112269 -0.0023544044 0.002082242 0.0024058104 0.0016992757 0.0032995944 0.0038323358 -0.0045810374 -0.001699673 0.0005244242 0.0037170078 1.0810133e-05 -0.0034106453 -0.0018183694 0.0018338899 0.0010311938 -0.0037455768 -0.00020894971 -0.0035630914 -0.0028569365 0.0034086523 0.00062128715 0.0027089897 -0.0040514143 -0.002080233 0.0012355787 0.003206729 -0.0047372156 0.0011053833 -0.00433739 0.0044997935 -0.000871211 0.0026584854 0.0023906645 0.0007457477 0.0013631225 0.0028925715 0.0016802968 0.0035822692 0.0035475513 0.0001255007 0.0033420995 -0.003419547 -0.003954949 -0.0016069156 -0.0014125778 0.00060427055 0.001346473 -0.003964157 0.0024030472 0.004051334 -0.00415023 0.0029143156 -0.0011392336 -0.0019100803 -0.0021776995 -0.0017561638 0.0021858572 -0.0022178434 -0.00305617 -0.00061804254 -0.00026628812 0.004604663 -0.0011695679 -0.00028067743 0.0016850895 0.0026564011 -0.0042036483 -3.597188e-05 0.0017139114 -0.000650003 0.00016333009 0.00077344646 -0.0025768552 0.0020325794 -0.0023279134 0.0026061775
nino 0.0015261192 0.0035870129 0.0045513897 -0.0046040174 0.0040955083 -0.00357097 0.00070009544 -0.0035187316 -0.0006304513 0.004569605 0.0011692764 -0.0034464484 0.0008738591 0.00029500033 0.00154859 -0.004237702 0.000707854 -0.0012762701 0.0015424823 0.00035835154 0.0011545855 -0.002238959 0.0049336604 -0.0018099478 -0.0047832807 -0.00074837025 -0.0033839836 0.001539501 -0.002469107 -0.0014672441 0.002244168 0.0010246793 0.00023024922 0.0019633055 0.0029529529 0.004092224 0.0028333347 -0.004336406 0.00034300963 -0.0017036914 -0.002115368 0.0017808591 0.0016010951 -0.0028965417 0.0020073345 -0.00394797 0.0019624024 0.0021136724 0.0042416425 0.0035924895 -0.0029885473 0.004844821 0.0028761919 -0.0035519374 0.004463967 -0.00022108821 7.736501e-05 -0.00083472405 -0.0035651124 0.0020249602 0.0009815943 0.0029570183 0.0042929794 -0.0002833312 0.0027582166 0.00073151063 0.0045894417 0.0026033346 0.00036976408 -0.0013743297 0.0005299958 -0.004122096 -0.0020600443 -0.003020026 0.0013326165 0.0016398389 -0.0042676823 0.0038938066 0.0047291294 0.00400156 -0.0042305267 0.0040700883 -0.004828612 0.004694609 -0.0021647988 0.0041065677 0.0021530327 0.0008024162 -0.0012578334 0.0006875456 -0.0035275288 0.0024761963 -0.0046003372 -0.004503004 -0.0011969935 0.0018009732 0.0020027393 0.0021635583 -0.0029679048 -0.0046020932
pelota 0.004165835 -0.0011251358 -0.0020887216 -0.004869134 -0.0015392983 0.0036593778 0.0022036356 0.0035501062 0.0005103702 0.0026785717 0.004555553 -0.004782428 -0.00077671866 -0.00059529324 -0.004027713 -0.003341989 -0.00022906237 0.0017964428 -0.0029021357 -0.0028952158 0.0009990869 0.0029583194 -0.004532948 0.00019417903 -0.0018761783 0.0038357307 -0.00018675148 -0.0007200553 0.002259019 0.0011336909 0.0037042573 0.002635782 -0.003724472 0.00015423913 0.0048144227 0.0006549904 -0.003070745 0.004048041 0.0031409415 0.00022040101 0.00041205014 0.0032523167 -0.0011670144 -0.0038081163 -0.004138364 0.0022142075 0.0011987744 -0.0020157453 0.004931639 0.0025385348 -0.0032656163 -0.004205767 0.003520554 0.0020922285 -0.0042792023 -0.0033432988 -0.0045078923 -0.00434508 -0.0039872155 2.3785116e-05 0.002999762 0.0025600526 -0.0034923428 0.003486829 0.0029861769 -0.004971021 0.0021174513 0.0043630395 0.00041276525 -0.0029534644 0.003930279 0.0032323115 0.003568167 0.00085368525 -0.004921544 0.0015954729 -0.0032564176 -0.0039923512 0.0015602839 0.003639088 0.0041770046 0.0020238932 -0.0037263844 0.003905463 0.00050632976 -0.0040225442 -0.0010658299 0.004222644 3.859888e-05 0.0016812054 0.0021220823 0.0030696413 0.0046737613 0.003963975 0.001622047 0.0012935688 0.0016528609 -0.0028336302 0.0031705557 0.0007775136
gritar 0.0033064324 -0.001122348 0.0040384624 0.0028761204 -0.0035875484 0.00010172855 -0.0038590892 0.0024042055 4.9802573e-05 0.0034085913 -0.001012603 -0.0005734194 -0.0020429736 -0.0015705692 0.00064053445 -0.0029211887 -0.0046223826 0.0028170524 -0.002842603 0.0012364289 -0.0023710788 0.004880338 -0.0040405644 0.0044935034 0.0040702284 0.0009621748 0.0013451454 -0.00052198465 -0.0012857433 0.0048303353 0.0032062011 0.0034386178 0.003948903 0.001985285 0.000716013 -0.0017377965 0.0013512524 -0.00078160217 0.0008965444 -0.0016305095 0.0030368755 0.0015387255 0.0033395088 0.0041251285 0.003363832 -0.0036717004 -0.00010152958 -0.0026633926 0.0012552525 0.0035324048 -0.000852495 0.0020886452 -0.004608868 0.0026528544 -0.00028751855 -0.0032623499 0.0044583105 3.172945e-07 -0.003335867 -0.0010918075 0.0015674547 -0.0028956018 -0.0027635559 0.0018368125 0.0006883612 -0.0016796303 0.0037756602 0.0007135382 0.0046331366 -0.002886852 4.223279e-05 0.004696605 -0.0010810845 -0.0030408588 0.0044092694 -0.004647345 0.0003060988 0.00400267 0.002942971 0.0040984475 -0.0011365835 0.0034948925 -0.0031104574 0.0016753556 -0.002510584 0.0024768754 0.0027148565 0.0015826182 0.0034436039 -0.001694785 0.0044282638 -0.003170303 0.00043900745 0.004912503 -0.0046330946 0.002376486 0.0044486746 -0.0009037003 -0.0015437788 -0.004755312
persona 0.0024250154 0.0021157798 0.00054437923 -0.0035350611 0.0044730967 0.0040509175 -0.004513383 0.0028258944 -0.0022124161 -0.0027216603 0.0035649415 0.0039556436 -0.0017312859 -0.0030219539 0.0035565475 -7.788569e-05 0.0013166493 -0.003616975 -0.0038848151 0.0034125142 0.0027515811 -0.000598549 -0.002255705 -0.00270462 0.0024776126 -0.001782736 -0.00056725007 -0.0042809187 -0.002291958 -0.0023138388 0.0011960715 0.00019327298 -0.0020380267 -0.0024964644 -0.0032859438 -0.0034933314 0.004200552 -0.0034690488 0.002885209 -0.003873342 0.0006916266 0.004070069 -0.004871041 -0.0041031893 0.0007112453 0.0031795437 0.0009830751 0.0034643565 -0.000981532 0.0043477253 0.000823798 -0.0014418704 -0.001436448 0.0010200312 -0.0044550286 -0.0011023208 0.0031356139 -0.004395927 0.0009970551 -0.0018250411 -0.004639501 0.0045223176 -0.0032434596 0.0011949214 0.0020514806 0.00044665844 0.0025429828 -0.0023241225 0.0030531846 -0.0009735271 -0.0012306416 0.0012489397 0.0026488982 0.0007068751 -0.0008805282 -0.0005680841 -0.0022672792 -0.004657203 -0.0012592054 0.002335102 -0.0017792741 -0.0033696354 0.0022600407 0.0017172417 0.002749915 -0.003385014 -0.005073614 -0.0022644198 -0.004236743 0.003473654 -6.7878645e-05 -0.003509036 -0.00091705215 0.0026401978 0.004625941 -0.0016405435 0.0030427985 -0.00034386307 0.0030293837 0.00045511272
pasa -0.0043238974 0.000848858 -0.0034987072 0.0038464733 0.0035040423 -0.0037374736 3.0617866e-05 -0.0010951024 0.0035664206 -0.004437808 0.0021154443 -0.0027052644 0.0022511254 0.0014336822 0.0034636364 -0.00028804442 -0.0037511159 -0.00445776 0.0008832839 0.0032052696 0.0011686104 0.004457553 0.0039340784 0.00047084581 0.0036472576 -0.0033018992 -0.0012147605 -0.0030647314 0.0027092623 0.0030616648 0.0021061355 -0.0027198922 -0.003009968 -0.003581327 -0.0013411046 -0.00088868587 0.0045831213 0.003064586 0.0010156041 -0.0029857936 -0.0046841437 0.0040523536 -0.0033570072 -0.00047077014 -2.4203664e-06 0.0046701315 0.0016448451 -0.0014076469 0.00092839537 -0.0022834311 0.0011651575 0.0031101755 0.00054691307 -0.00097628223 0.0015614292 0.0050980966 0.0023258138 -0.0037106797 -0.0012156963 -0.003257342 -0.0010238343 -0.004428222 -0.0032943531 0.0002251082 0.0045648236 0.004363078 0.003501268 0.003361234 0.0013572975 -0.002657965 0.00018071641 -0.0026960147 0.004007199 -0.0009567992 0.0045339465 -0.003183515 -0.0018028598 -0.001137507 -0.003057958 -0.002881544 0.0035124898 -0.0027964618 0.0049007996 -0.0009165857 -0.0046431487 -0.002113813 -0.0027192943 0.0032556523 -0.0032566972 0.0020875132 -0.00091866497 0.0017749295 -0.0042598182 0.004114023 -0.0008602096 0.0006917044 -0.004673198 -0.0024424866 -0.0022796774 -0.0030596112
gritos -5.712121e-05 -0.00072963204 0.004356834 -0.0011043724 0.0018864626 0.00010460646 0.0032562977 -0.0010125623 0.0010269975 0.0014837548 0.0020748691 0.0038492403 -0.0029499163 0.004200864 -0.0033988394 -0.001906829 0.0021012565 -0.0012048344 -0.00057642715 -0.0032371653 0.002373646 0.0030119836 0.0012560482 -0.0038048842 -0.0010649328 9.1698974e-05 0.0028597515 0.00084276457 0.0023370592 -0.002658695 0.0020378854 0.0029440848 -0.0012910507 0.0021099981 0.00056289486 -0.0028428931 0.00095093215 -0.0011052405 0.0021692473 0.0037469128 0.0006668279 0.0021095837 -0.003911644 -0.0022591911 0.002186556 -0.0043716603 -0.00198401 8.4345316e-05 -0.0017655345 -0.00051423564 0.0027374886 -0.0022172297 0.0024663245 -0.004735267 -0.0018672142 -0.0025741388 0.00048949226 -0.0024850143 -0.004928789 -0.0016167813 -0.0008238926 -0.0016229738 0.004740817 0.0035416025 -0.00060141465 -0.003644594 0.0018203673 -0.0035985522 0.0031820445 -0.0012054913 -0.0019360222 6.9637754e-05 -0.0044627623 -0.00016139487 0.003163305 -0.00461563 -0.004766121 0.001849557 -0.0015904119 -0.0032379902 -0.0021496941 0.0049691517 0.0033222283 -0.0047230986 -0.0012452294 0.0017373024 0.0005392562 -0.0023088672 -0.0035571281 -0.0033005264 -0.0009569303 -0.0011816891 0.0015462884 0.0010342618 0.003129909 0.0040768636 -0.0036149332 0.0027727224 0.00021971883 0.0032042244
gordito 0.0020317438 -0.004114199 -0.0036158068 0.0043828986 -0.0013976283 -0.004886573 -0.0046372465 -0.004247375 0.0039231037 0.0018110393 -0.0037101873 -0.0001774559 0.0017198178 -0.0004378655 -0.00013993822 0.0021662232 -0.0029867424 0.0015441765 -5.7223413e-05 -0.0018207614 -0.0036830169 -8.935008e-05 -0.0028162242 -0.0032526497 -0.0037666438 -0.00044150438 -0.00091189134 0.0021850395 0.000901992 0.0048481184 -0.0007263905 -0.0015471934 0.00023125991 -0.0018730663 0.0045473087 -0.0030917274 -0.0012719401 -0.0047573545 0.0027719473 0.002538304 0.00093474024 0.0027632758 -0.0042312387 0.0034373389 0.0025916887 0.00015456429 0.0025686738 0.0036186294 0.0029840248 0.0050173155 0.0033580202 0.0021702978 0.004400751 0.00037013157 0.0031923887 -7.079659e-05 -0.0042486973 -0.0030997917 -0.0024785032 -4.447108e-05 0.0025607683 0.0027545274 0.0011759441 -0.0021087122 0.0019366314 0.0045115785 0.00046378473 -0.0027258846 -0.004564492 0.0018453018 -0.0020489085 -0.0038747909 0.001212239 0.0038330888 -0.0016491644 -0.004061116 0.00041850662 0.002048705 0.0032977988 -0.0022283394 -0.0042911475 0.0011300518 -0.0047229426 0.0015052005 0.001149333 -0.0021126398 0.00085356226 0.0024718908 0.0044568055 0.00048420255 -0.004849168 0.0039178147 0.0041172537 0.002249528 -0.0017670832 -0.0033525152 8.5802145e-05 -0.0027355473 -0.00025690006 -0.0010466257
gordo 0.0024274022 0.0033606766 0.0041063577 -0.003022532 0.0014408076 -0.004574445 0.0047626463 -0.004398045 -0.0015812427 -0.0032304872 0.004239337 -0.0035844105 -0.0046015847 -0.0039541437 0.0009429497 0.002521753 -0.004647074 0.0048824176 0.004384062 -0.002949147 -0.0043819635 0.002198491 -0.0032585745 -0.002183385 -0.0006098586 -0.0045257993 0.0005227941 0.0033929523 -0.0042698774 0.0027704334 0.0026306282 0.0026521997 -0.001461242 0.0033881986 0.003067457 0.0034995675 -4.3052787e-05 -0.00038407458 0.004919694 0.0032085362 0.00325968 0.0029268044 -0.0025810462 -0.0031123704 -0.0015028728 0.001193817 -0.00029487888 0.0024482296 -0.0037121102 0.00027385695 0.0030615379 -0.0030332224 -0.004203728 0.0026274316 0.0010806471 -0.003894817 0.00044756455 -0.00086873805 0.0024064553 -0.00016891875 -0.00057889445 -0.0049988865 0.001481331 -0.0011902158 0.004306265 0.003999252 0.003241041 -0.0013484978 -0.0042340234 0.004486885 -0.0034247779 0.00085601496 0.0031356271 -0.0031577111 -0.00037225572 0.0024287463 0.0033205024 0.00015687993 -0.0033137896 -0.00013613887 -0.0007535884 0.0013429144 -0.0023628883 -0.0013832308 0.0049541853 -0.0036045893 -0.004717196 0.002151862 0.0040360354 5.2699892e-05 -0.004541038 -0.0020122514 0.0015613758 -0.0010085236 0.0041822847 -0.0045866007 -0.00030233915 -0.0019162335 0.0027248976 0.00057804486
gritan -0.004423256 -0.0033913825 -0.0032765549 -0.0017993937 0.00016485008 0.0030244908 -0.003351479 -0.0006109476 -0.00031624536 -0.0009948759 0.0051076966 -0.0038050122 -0.0031080544 -0.00073526613 -0.0028739837 0.002033292 -0.00457194 0.0038145208 -6.994998e-05 0.0023015984 0.00082874135 -0.0010660384 0.004743442 0.0005487546 0.002397295 0.0004967992 0.0027315728 0.0027316795 0.0043203305 -0.0034221883 0.00083032885 0.0053112106 -0.00081816455 -0.0026436334 0.00013639806 -0.0028712 0.0031786268 0.0008424957 0.0016363766 -0.0013675361 0.00058621453 -0.00037100588 0.002810373 0.00421118 -0.0042454917 -0.0014708547 -0.0019791797 -0.004476856 0.0013794708 0.005203734 0.004834412 -0.0040254397 -0.0017223479 0.0018380705 -0.0053377273 -0.00024077133 0.004507958 0.0006195546 0.0017949904 -0.0036472534 -0.0019586615 0.0010415157 -0.0013175788 0.0006810613 0.0016736058 0.0029867657 0.0020107902 -0.00017045836 0.003154639 0.0026300577 -0.0009414345 -0.00308666 0.0050047515 -0.00018367029 -0.00090567145 -0.004386002 0.0047217477 0.0035908646 -0.0033561473 -0.0046469304 -0.0042442265 0.0021466466 0.0031150277 -0.00062966364 -0.00063900725 -0.00321128 -0.0024063843 0.0034045996 0.0034741017 -0.0040753596 0.0015572414 0.004336845 -0.0003394481 0.0043348 0.0019360671 -0.0025602363 -0.0005543683 -0.00060071883 -0.0034849052 0.004732298
refiere 0.0004316425 -7.7740406e-05 0.0020149343 -0.0036415448 0.0033900843 -0.0036097209 0.00014568267 -0.00057489955 -0.00033483 0.002522946 -0.00012611771 0.0035245607 -0.004457244 0.0016899273 0.00062193524 0.0030713181 -0.0012513053 0.0029681101 -0.004174358 -0.00036893995 -0.0025657509 -0.0024045068 -0.0033474506 0.0025149714 0.0023131613 0.00071773375 0.0048814393 -0.0016757506 -0.0031932218 0.00078283215 -0.003652522 0.0042148945 0.0025025383 -0.0044889115 -0.0029558747 0.0032716282 -0.00025596164 -0.0026601362 -0.0012990417 0.00050853315 -0.0013354946 0.00083572953 -0.00059278077 0.0027843418 0.0016785122 -0.00041325492 -0.0023164519 -0.00058390584 0.0027713843 -0.0030269884 0.0030821366 -0.0041255252 0.0023643635 -0.0034558247 0.00426659 0.003653189 -0.0026924806 -0.0016415732 -0.0040012957 -0.0034993559 -0.004269568 0.0015962817 0.0049015824 -0.0014440379 0.00352059 -0.003914652 -0.002688398 0.00046918102 -0.0024703855 0.0014087004 0.0028821353 -0.00492087 0.0024775832 -0.0032483123 -0.0002850557 -0.001269301 0.0033113705 0.00086072786 0.0019890417 0.0030659402 -0.004474025 -0.0002156917 -0.0011965312 -0.00402433 0.0021445428 0.003929612 0.0039259354 0.002578206 -0.001352779 -9.069755e-05 -0.0015605693 -0.0032044721 0.001291245 0.0029289946 0.0046439082 0.0036211011 0.00053741876 -0.003582927 0.004557948 0.0018503091
ninos -0.00316205 -0.0027468023 0.00031752235 -0.0008011688 0.00013489767 0.0023198742 0.0018122782 -0.0042645484 0.0029586637 0.00055751204 0.003544227 -0.004165318 0.00062563806 -0.0032906067 -0.0015542759 0.0024939373 0.003486452 0.0013371278 0.0035632967 -0.0021386854 0.00062745414 -0.0014697531 0.0027416628 0.0037522735 -0.0028773965 2.7387938e-05 0.0029080906 -0.0012491837 -0.0013033242 0.00032957146 0.00012731101 -0.0021468147 0.00248772 0.0020952243 -0.0018500761 0.0014494755 0.003853832 -0.0017607285 0.0048887744 0.0036393295 0.00060301024 -0.0030912908 0.001838675 0.004725021 -0.004578165 0.0030904626 0.002964189 0.0013751286 -0.00014313473 0.00028852993 0.0045400662 0.0008424027 -0.0008951011 0.00026174507 -0.0005001514 0.0008304729 -0.0007338115 -0.004765019 -0.003623326 -0.0019792123 0.0042564105 0.00066177413 -0.0011556483 0.0018653894 0.0021745232 0.0021849123 -0.0022735544 0.0018879023 0.00066393835 0.0034592599 -0.002341611 -0.0018675128 -0.0004915655 -0.004674879 0.003409385 -0.0014335867 0.004234047 -0.0039458047 -0.0030687111 0.0027891402 0.0033115523 -0.00428121 -0.0033931336 0.0019656874 -0.0017785938 0.001959079 -0.003088179 0.0049435175 0.0038766481 0.00036882612 -0.0025209512 0.0010073953 -0.0038139129 0.0007019872 -0.0036475388 -0.0021468585 -0.0030016883 0.0012555746 0.0019546074 0.0013206247
pequeno -0.0031850287 0.004672922 -0.0033982035 0.0021727232 -0.002039654 -0.0048312224 0.00083038385 -0.000696548 -0.0028306262 0.0037852034 -0.0011667034 -0.004726471 -0.0014184242 0.0042344145 0.00254817 -0.00061250926 1.0205904e-05 0.0044381428 -0.0014712117 -0.00069476524 0.0029158662 -0.0042136516 0.00031398356 -0.0011839677 0.004716255 0.0044598915 0.0047238073 0.0027876338 -0.0038039396 0.004879685 -0.00061254913 -0.0013295837 0.0038697398 0.0046366504 0.0035183728 -0.0039029373 -0.0021148373 0.0030353235 0.0035193954 0.00078662497 -0.0019055714 0.0023157988 0.0015464278 -0.0018100843 -0.0039934167 0.0012976872 -0.0009468437 -0.001458247 0.0038327887 -0.0018652375 0.004946654 0.00088814594 0.00060636364 -0.0028589293 -0.001966032 0.004894242 0.0014548844 0.0017715443 0.0028865635 -0.00095702027 -0.0040808213 0.0036710796 0.0010942946 -0.0015114342 -0.004227376 0.00037492634 -0.0032095695 -0.0041194153 0.0043310286 0.00085920474 -0.0042664465 -0.004791831 0.004362119 -0.004619602 -0.0036845452 0.0008032642 -0.0047899643 -0.004777161 0.0017542371 -0.0017694865 -0.0003953927 -0.0036186217 -0.0047609867 -0.00092013605 -0.0018627038 -0.00072134146 -0.004360197 0.0017848705 0.0037509657 0.0046347775 -0.004351245 -0.0048541576 0.0010681816 0.0048910365 -0.0021347648 -0.0034643863 -0.0020004392 -0.0039409995 0.0024623033 0.0024005065
ruidoso 0.0048513515 -0.0025430392 0.004587032 -0.0005778866 -0.0022960706 -0.003971745 -8.980844e-05 0.0028607682 -0.0033570123 0.0049073347 -0.0004570122 -0.0032073976 -0.0049729007 -0.0012496305 -0.0016997968 -0.000120796 -0.0037803424 0.0040850765 0.0035832743 0.0048201885 -0.002285657 0.0016359081 -0.0028262262 0.00023239046 -0.0023245048 -0.003929922 0.0026921497 -0.0003461425 0.0044297525 0.002828649 0.0045816973 -0.0007814832 0.0017958543 0.0015576266 -0.00024011846 -0.002598994 0.004448874 -0.004788196 0.00061512407 0.0043379217 -0.0035784014 -0.004966547 -0.0002904847 -0.0046601593 0.0012434027 -0.0027383883 0.00093657733 -6.420951e-05 0.004861703 -0.0031245938 0.0017976572 0.00094380084 0.001224964 0.00109972 -0.00034686187 0.004358712 -0.0031633356 -0.00012238845 0.0011381853 0.0029362333 -0.0041280068 0.003572485 -0.0026699968 0.0022668329 -0.0012815567 -0.0010283082 -0.004857441 -0.004939315 0.0010254858 -0.002373196 -0.0024370523 -0.0018522039 0.00012801532 0.002006295 -0.0026975106 0.00240308 0.0020531318 0.0014201436 0.0010935469 -0.0005129727 -0.0007791416 0.0006222519 0.0013976917 -0.001211446 -0.0018561154 0.0014922824 0.0034214621 -0.0014163043 0.0003913542 0.0040445053 0.0045025605 0.0048631243 -0.004542428 -0.000529079 0.00436301 0.003360159 -0.0027796384 0.002226007 0.004531729 -0.003838879
alguien 0.0028441488 -0.0038701724 -0.004213588 0.0032473647 -5.5970217e-05 -0.00470523 -0.004142387 -0.0005296925 -0.0015600593 -0.0005550129 -0.00048823975 -0.0015036338 0.004722492 -0.003627621 0.0007714785 -0.0018285181 0.0010098364 -0.0033610393 0.0036906528 0.0023524289 0.00088552677 -0.0048338086 0.0019892796 0.0030048308 0.004561939 0.0015312249 -0.0030600487 -0.0048579224 -0.0014249758 0.0008814301 0.0028835642 0.0029062897 -0.0038525087 0.0013494801 -0.00020735929 0.0028095501 0.004599121 -0.0029352738 0.0020724677 -0.001912862 0.0041210903 -0.0031582285 0.0022306556 -0.0019367053 0.0013593475 0.004822381 -0.00012866092 0.0037258423 0.00068413833 -0.0008911171 -0.0018774504 0.00036658306 0.0008891429 0.00056028925 0.0037937537 -0.0034411713 0.0007334604 -0.004530676 -0.00077895983 0.003726243 -0.0023536994 -0.0038949572 0.0012863202 0.003763631 -0.00081488804 -0.0042333244 -0.0015329198 -0.002749466 -0.0031930362 0.0037518071 0.00063997926 0.003582877 0.001671925 -0.0003768335 0.0012735596 -0.0016694583 -0.0009124369 0.003971446 0.004814508 -0.00028574478 -0.0045930333 0.0012296804 -0.003466197 0.0011985765 0.0041719317 0.0043391674 -0.0015612377 0.0026904012 0.0033714396 -0.001087578 -0.001872655 0.0031629715 0.0030125154 0.0035348032 0.0017189225 0.0010967151 -0.0034736763 0.00074830634 -0.00235052 0.00049823156
escandaloso -0.0036140676 -0.00276071 -0.00040448215 0.0038025952 0.0034586568 -0.0009464215 0.002759167 0.004308829 -0.003848623 -0.0025677122 -0.0042750225 0.0012556922 -0.0016329814 -0.004437759 -0.004362901 0.0032899114 -0.0020612283 -0.0010467243 -0.004828175 0.0010837113 -0.002616994 -0.003108152 -0.0010547668 0.0010417615 0.0037624366 -0.003686345 0.0022393456 -0.0023983212 -0.0007194958 -0.0043370905 0.00039621326 0.0046166624 -0.0005173708 -0.0039355895 0.0047266055 0.0029223901 -0.00085081346 -0.00417691 0.0006017408 -0.0026403368 -4.382119e-05 -0.0050016097 0.0011780914 0.004603458 -0.0021450059 0.0024473025 0.0017801621 -0.00034483313 0.0011354326 0.00058775407 0.0032728936 -0.0030408062 -0.004236531 0.001608854 -0.005137313 0.0016222631 -0.00056454836 -0.0047991714 -0.0024055226 -0.0014731875 0.0001603733 -0.0040428275 0.004337014 0.0027043144 -0.0020644674 0.0048151123 -0.00080783723 0.0010240497 -0.002889785 0.0016177562 0.002899573 0.0001555759 -0.000281611 -0.0014926667 0.0017395441 -0.0026281832 -0.0023673337 -0.0014305594 -0.00282856 -0.0011239962 -0.0016858834 0.0033128597 0.0038533553 -0.00092332385 0.004170631 0.0037453822 0.000850976 0.004351602 0.0020833558 0.0030893811 0.0043274104 -0.0020236422 0.0019589977 -0.0046404554 -0.0004932302 0.0048768762 0.0030963118 0.00128027 -0.00405464 0.0041859983
gritona 0.00068326114 -0.0020483762 0.00091412954 -0.0023874782 -0.0029749933 -0.0034877565 0.00097163237 -0.0021108768 0.0025390817 0.0030407289 -0.0035613815 0.00089699356 0.00387674 -0.0032731346 0.0012433544 0.00046778162 0.0007269798 -0.0029482956 -0.0048915255 0.0007210301 0.0007069683 0.0020573242 -0.0025097507 -0.00025232692 0.0025907094 0.0029190038 -0.0048003127 0.0032168534 -0.0033376198 0.0043462566 0.0028952644 0.00034138464 0.003657266 0.0043278644 -0.0037232947 0.0023311798 -0.0023931365 0.003120619 0.0016469582 -0.0013448847 0.0025656035 0.0025341832 -0.0019313294 0.0024913417 0.002800771 0.00026770908 0.0028235393 -0.0041270247 -0.0043158033 -0.002808626 0.0049523357 -0.0032200704 -0.0029193533 0.00055672263 -0.0017140417 0.0020742551 0.003160505 0.0012464802 0.0016528266 0.0026083176 0.0019979817 0.0032235924 -0.002592987 0.0010812074 -0.004302247 0.0029878868 -0.0017209738 0.002185641 -0.0013481558 0.0045660953 0.00062751945 0.0036270928 -0.0009746538 -0.0047009494 0.003351711 0.0019814528 0.0021995606 0.0035846815 0.0039778617 0.0029722604 0.003200084 -0.0002476597 -0.0017242756 0.0013574332 -0.0024105965 -0.00089087966 0.0035976232 -0.001478408 -0.000601073 -0.004740237 -0.0012252117 -0.0011097573 -0.0027791662 0.001701185 -0.003266548 0.004366342 -0.0025883864 -0.00074924814 0.001452385 0.0029076925
rato -0.002777723 0.0012118219 -0.0032384065 0.0012217145 0.003229902 0.003002921 -0.004830975 0.004866258 -0.003537266 -0.0043658405 0.003175859 -0.0022324973 0.0035196838 -0.0025713868 -0.0038445815 0.0038893593 -0.0048243017 0.0024903046 -0.0044158055 -0.00013924057 0.0017730207 -0.0035949894 0.0002799824 -0.0005504766 -0.0039880974 -0.0047066635 0.0032561528 0.00031357748 0.00030955725 0.0024574706 -0.003036936 0.0051483437 0.0046346625 0.0038668967 -0.004719754 0.0019618855 -0.0010104742 -0.0011028061 -0.0034169264 0.0017899477 0.0027216626 -0.004572262 0.0015450238 0.002048537 0.0011362669 -0.00041591283 0.00053554453 -0.0020481928 0.0038170437 0.004250204 -0.00042131837 0.0023059307 -0.0024792755 -0.0035809937 0.002291532 -0.00361081 -0.0026462558 -0.0027518787 -0.0029798718 0.0039212042 0.0036014684 0.0038484994 0.0012221468 0.004252285 0.0022666685 -0.00043571088 0.0031726903 -0.003939331 -0.0035251733 -0.0029451535 -0.0013819576 -0.003158571 0.003006032 -0.0011603057 -0.0022578996 0.0009803931 -0.0025888286 0.0049965153 -0.004980891 -0.0041161245 0.0035602443 -0.0029558078 0.00091197976 -0.0040454012 0.002397762 -0.002184421 0.004117597 -0.004897813 0.0031303207 -0.0038596164 0.0011405227 0.0020832114 0.0040962845 -0.00010450706 -0.0005565479 -0.0021449905 -0.002743319 -0.0035754247 0.0008884278 0.0042750076
bebe 7.782273e-05 0.0013350548 0.002436195 0.0047798534 -0.004313446 -0.0026418944 -0.00023528874 -0.0033341625 -0.0017223144 -0.0045181555 0.00429148 -0.005182563 -0.001197265 -0.0041851467 -3.6815014e-05 0.0025259582 0.00027693887 -0.0002881363 0.0049359035 0.0006379336 -0.0027189301 0.0013844952 0.001319785 0.004740066 0.0029916845 0.0043411087 2.261237e-05 -0.0035281 0.0027680227 0.002708549 -0.0035882439 0.0040221773 0.0010456551 -0.00051386375 -0.0005156739 -0.004689494 -0.0010821042 0.0024176044 0.0036234006 0.0017116034 0.0026516123 -0.0036576896 -0.0009620186 -0.00097055925 -0.002998383 -0.00069522194 0.0041982187 0.001877106 0.0005947013 0.003491909 0.0024212361 -0.0025671374 0.003430876 -0.00078432617 -0.0026006056 0.004387042 0.0047382996 0.0028125462 -0.0024226606 -0.0027568208 0.0011278576 0.0027456628 -0.0028756396 -0.0037157293 5.5697565e-06 -0.0046460386 0.0015187614 0.0010067004 0.00017623225 -0.0049845446 -0.0004957554 -0.0029136413 -0.0025597918 0.00022241868 -0.0027865355 0.003722389 0.0017406902 -0.004256146 -0.0044565625 -0.0005763905 -0.003311173 0.0045802607 0.003646279 0.0020087776 -0.0046663214 -0.002227311 -0.004624132 -0.004444845 0.004537608 -0.0027358427 -0.0027947498 -0.0008921128 0.0007550825 0.0042002746 -0.00042106904 -0.0042669466 0.00017597253 -0.0010434787 0.003096432 -0.004429789
deja 0.0016093535 0.0012933626 -0.0041562906 0.001430062 0.0015950452 -0.00073421677 0.0017595675 0.001795163 -0.0033603576 0.0036025932 -0.0014840051 -0.0006394704 0.00067968457 0.003371091 -0.0022021686 0.0017274922 -0.0025672056 0.0017340764 0.0014424915 0.004901154 8.171323e-05 0.0042253966 0.0035215104 0.0029060117 0.000891309 0.004307097 0.00079185603 -6.971938e-05 0.0032919978 0.0047196327 0.0027041635 -0.003084098 0.001051118 -0.0025322705 -0.0016857042 0.004095297 -0.001104957 0.0020943042 -0.0010289046 -0.0001588667 0.004455381 0.0032000102 -0.0010152457 0.0037783603 -0.0033835932 -0.0003411853 -0.003449696 0.00032205708 0.0032404275 -0.001042168 -0.0023195413 -0.003314824 -0.00076181564 0.001722609 -0.00070054166 0.004723674 0.004736028 0.002184084 0.004506439 -0.0006330765 0.0035667026 0.00027259465 -0.0023700173 0.004966063 0.004595812 0.0006730424 0.003596346 -0.0011414639 -0.0035590616 0.0047185384 -0.0047846525 -0.002583441 -0.0019052512 0.003509061 0.0036741274 -0.0026406476 0.0027796193 0.0009048779 -0.000892188 -0.0036891673 0.0022771584 0.0036215703 0.002571742 -0.0015110039 0.003991766 0.0013075457 -0.0021388857 0.0038553711 -0.0045467294 -0.004505567 -0.00029687767 0.0015604161 0.0022413963 0.0027616955 -0.0026454784 0.0032883561 -0.003964934 -0.0021195766 -0.0012667504 -0.001015145
travieso 0.002995865 0.0018868047 0.0002277094 -0.0027226913 0.0040961597 0.002475385 0.0009373891 -0.0025986664 -0.0042000134 -0.0019719223 0.0033002864 -0.004070332 -0.0019777291 0.0023757096 0.002717842 -0.0018011552 0.0008628695 -0.004670023 0.0033301928 0.0030039817 0.0043967124 -0.0013129138 0.0039632157 -0.004736714 -0.0041161 0.001417753 -0.00455002 -0.0020616876 0.0013153612 -0.0010412192 -0.0023117333 0.0038891884 -0.005044804 -0.0031668278 0.004826638 4.6402398e-05 0.0031342104 -0.0019333203 0.0032281964 -0.0004484121 -0.0018493999 0.0036518746 0.0031435855 -0.004933576 -0.0019246056 -7.1730574e-05 -0.00042717284 0.00021235792 -0.0027308627 -0.0042402074 0.001722245 -0.0019037584 -0.003067745 0.0034741152 0.00020028895 0.00082115515 0.0034473178 -0.00036930013 0.0029475186 0.002562738 0.0011487294 -0.0031718097 -0.00326405 -0.0032981753 0.0023074162 0.004576151 -0.0033135656 -0.0045405305 -0.0022415617 -0.00011692925 0.002170275 -0.0016446435 0.0038494559 -0.0002596254 -0.00027208377 -0.0011771102 -0.0023358765 0.0016134467 -0.0034377056 -0.00030659745 -0.00044701548 0.0047627417 5.5999648e-05 0.0029534649 0.0020862122 -0.003817035 -0.003849255 0.0045306277 0.0025247333 0.0017813105 -0.0029048764 -0.0011144152 0.0045559355 -0.0036544248 -0.0005013405 0.002881763 0.0026301432 -0.0044124844 -0.0017475089 -0.0018492432
ruido 0.0009224674 -0.00019138628 -0.00090055045 -0.0019767154 -0.0021304109 0.00020608802 -0.0018985712 -0.004222192 0.0030874854 -0.0025313953 0.004404171 0.0024203404 0.00036845 0.0016787049 -0.001066735 0.0037834337 0.00013381906 0.003936743 0.004336012 0.0004855156 -0.0027158717 -0.0026314722 0.0036393197 -0.00082534965 0.002935948 0.0028764587 -0.0043153223 0.003054027 -0.002828866 -0.0019142233 0.0024082835 -0.0010789478 -0.0018413124 0.0019932906 -0.004275676 -5.1785613e-05 -6.477153e-05 0.0032647918 0.00062348763 -0.003442101 -0.0021565303 -0.0027165473 -0.0031561311 -0.001725428 0.004562916 -0.004408194 -0.0033560647 0.0018844006 7.413502e-05 -0.0031016616 -0.00217549 -0.0023164207 -0.0038551718 -0.0012461729 -0.0047762697 0.004370921 -0.003519993 -0.0002697302 0.0009157847 0.0013865693 -0.0026190903 -0.003447229 0.0017845428 0.0006858573 0.004699233 0.0022093582 0.0008565258 -0.0038469972 -0.0031814715 -0.003984603 0.0044436506 0.0009319025 0.0034307968 0.004701125 0.0012361706 -0.0010066672 -0.0041346755 0.0015421379 -0.0016702395 -0.004187489 -0.0014170873 0.0014438363 0.0012943574 -0.003024246 -0.0035969454 0.0013016411 -0.00194853 0.0040921597 0.00029290415 0.0008172062 0.0030891488 0.0045032045 0.00046691907 0.0033143002 -0.0024727958 0.0010876908 0.0028125178 0.001640219 0.0024124063 -0.0038574443
chillon -0.0015710285 -0.003705537 0.0013484834 -0.0023056215 -0.0027553462 -0.0029534465 -0.0020152624 0.004101159 0.0012164648 -0.004363008 0.002190971 0.0026999363 0.00036490537 0.0029637471 -0.0039284006 0.00419194 -0.0033852668 -0.0046060006 0.0029138885 9.1478076e-05 -0.0038403736 0.0013555364 0.0003723021 -0.004588757 -0.0010952442 0.0022621881 -0.00014902643 -0.001977362 0.0029908435 0.0014615665 -0.004627783 -0.0015799343 -0.0027047067 -0.0019371766 0.0044403053 -0.002910866 -0.0021533743 0.0018097893 -0.0018587967 0.0031758728 0.003416799 0.0027692544 0.0028274911 -0.004502489 -0.0032259615 0.0021821707 0.0022782946 -0.0041315346 -0.0012767379 -0.0016189563 -0.0035787316 -0.0043655457 0.0025047197 -0.0018658662 -0.0017049338 -0.0033245499 0.0027480964 0.0027885777 0.0049325693 -0.004405364 0.002262737 0.0014022359 -0.003943609 -0.0032279945 -0.00050018 0.0005580413 0.0012610344 0.003450338 0.0012746542 -0.002535553 -0.00075952674 -0.0046862364 0.003330854 0.0033189368 -0.0003590437 -0.002549864 -0.0011730044 0.0023065705 0.0024710663 -0.0030911097 -0.0016835778 -0.003826433 -0.0008454496 -0.0025900796 0.0022494097 -0.0032631136 -0.00090211694 -0.004513425 0.0031591929 0.0019030871 7.0036754e-06 -0.0021805374 0.00060627796 0.0013366473 0.0031326604 -0.00081725465 -0.00055891875 -0.0023001577 0.00043503218 -0.0031627421
fuerte -0.0025948589 0.004904019 -0.000119739314 0.0014458693 0.0004021085 -0.0005966983 -0.0027268098 -0.0017732828 -0.00070550694 -0.002211317 0.0025073925 -0.0015171384 0.0044206223 0.0014067796 -0.00010219449 0.0044258847 0.004439877 0.0036634465 0.0039845286 -0.004129725 -0.0012193706 -0.0025374321 0.003005588 -0.0037992347 0.0030774595 -0.0025014735 0.0025300777 -0.0006172773 -0.0005185483 -0.0017074012 -0.0008611045 0.001692007 0.0045719934 0.0033744895 -0.004746138 -0.0033918633 0.001019811 0.0017472384 0.0036167018 -0.0048611052 -0.0046161353 -0.0013274472 -0.0032985958 -0.0027518072 -9.47488e-06 0.0015761135 -0.0031071443 0.0004112479 -0.0042426884 -0.004517225 0.0033314452 -0.0026555432 6.4070155e-05 0.0015718297 0.0040086815 0.00024619355 0.0016202845 0.0045367414 0.00071857095 -0.0031140747 -0.004448579 -0.0036722354 0.00089632184 0.004220869 0.0048489096 -0.0018676275 -0.0017588547 0.0026874628 -0.0014524761 0.00018502849 0.0008280946 -0.0026328925 0.0047331727 0.0020332558 -0.004825085 -0.0032690943 0.00055146165 0.004749668 -0.0015795167 0.0006641041 -0.0030298694 -0.0003472791 -0.0037842037 -0.0034578466 -0.0028168086 -0.0013115645 0.0010825342 -0.0047201146 0.0028579722 -0.0030648832 -0.003834841 -0.00079774845 0.0029711858 -0.0027820873 -0.0029113162 0.0022756928 -0.0029011497 -0.0040165056 0.0037486264 0.0016087546
lloran -0.00088308903 -0.0048495135 -0.0037771896 -0.0008740852 -0.002613316 0.0012264192 -0.0021891154 -0.0023898287 -0.0040304335 -0.005143627 -0.0041195466 -0.0024538292 0.0033248074 -0.000282184 -0.00503502 -0.0035521055 -0.0016057653 0.0038491609 0.0017779684 0.0016716267 0.0045900415 0.0009139111 0.0007904234 0.0048098816 -0.0038496037 0.00032679117 0.0010286913 -0.0008810185 -0.003925547 0.0027087356 0.0008871062 0.00039730594 0.0015010369 0.0018799737 -0.0020074563 -0.0040711807 0.0034091757 -0.0034944906 0.0053669233 -0.0017510207 -0.0034587637 0.0022494365 0.0047535705 -0.00406218 0.0050724787 -0.0048897592 -0.0020009093 -7.0036986e-05 3.848832e-05 0.00046494388 0.0012600151 0.0016054076 -0.0038615137 0.0010552693 -9.4891846e-05 0.00470483 -0.003740094 -0.00088905176 0.0047354465 0.0037459251 0.004563809 0.004153591 -0.0036201782 -0.00081934326 -0.0017762171 -0.0007003898 0.0014824716 0.0004459411 -0.004247794 0.001643464 0.0022770613 -0.0039510946 0.0041300496 -0.0050911102 -0.0018901639 -0.0022719374 0.0038800337 0.003177142 -0.0008166377 0.0019115163 0.0015727949 0.0008011416 -0.0010824375 -0.002359785 -0.00054420193 -0.004657152 0.0045134844 -0.00023296631 -0.004164148 -0.00022853346 -0.0049280026 0.00018620936 0.0015991493 -0.004457711 0.0014798034 0.0033265406 -0.00084398745 0.0002646742 -0.0017358735 0.0035775458
berrinche -0.0014072941 -0.0029208828 0.00138766 -3.335745e-05 0.0031813267 0.0012966066 0.00029760334 0.0014923671 -0.0023238577 -0.0018704695 -0.003389862 0.0048257723 -0.0010399297 -0.0006321803 0.0012050994 0.0019011257 -0.0013191914 -0.004545765 0.00032485282 -0.001575076 0.0010292793 0.003920737 0.0023264196 0.0049165976 0.0045509017 -0.0043064044 0.0028749327 -0.0011134952 0.0033682962 0.004865412 0.0031756153 -0.0015668477 -0.0039989124 -0.0028843798 0.001067861 0.0007478148 -0.0018638391 0.0023313197 0.00084418146 -0.0006090532 0.0027501166 -0.0017524995 0.0024748691 -0.0034822274 -0.0021746845 -0.0009552681 -0.0039821933 -0.00022563034 0.004656246 0.0019051528 0.001559075 -0.0025485845 -0.00065581803 -0.0010078648 -0.0006426682 -0.002262987 -0.0047524897 0.0035050306 -0.00015397582 -0.00095809717 0.004331596 -0.001510725 0.002223769 -0.0041333484 -0.00011429059 -0.00021738606 0.004340999 -0.0021904376 -0.0044748113 0.0031001826 -0.0031898876 -0.00038856486 -0.0022523473 -0.0016025157 -0.0018790563 -0.0021247389 -0.0023034 -0.00035958944 0.0048942417 0.002145381 0.004741421 -0.0043855864 -0.0039624074 -0.003456803 -0.002894504 -0.0030003097 -0.0012846369 -0.0015951146 0.0019770989 0.0012054392 0.0019930191 0.0038243257 -0.0029975208 0.00046195643 -0.0034028348 -0.0046427897 -0.0046770116 0.0010399735 0.0026932552 -0.0045876983
inquieto -0.0013356968 0.004004447 -0.0038463443 -0.0037528125 0.004326557 -0.001713252 -0.0007858504 0.0047225445 -0.0018668643 -0.00075082236 0.0025200306 0.0030445985 -0.0013371197 -0.004909352 0.0039330204 0.0049294815 -0.0027657396 -0.0032483544 0.0014133488 -0.0017243354 0.0036136396 -0.0018467316 -0.0029961087 0.0023869544 0.0044289012 -0.0037167598 -0.00025597977 0.0014127003 -0.0028738026 0.0021183894 -0.0035724773 0.0028622083 0.0045565907 0.003379884 -0.0013660911 -0.0019707954 -0.00021731034 -0.0032296178 -0.0033944193 -0.0017066678 -0.0022399882 -0.0010902893 -0.003563299 -0.0011768275 0.003963972 -9.0705915e-05 -0.0020456775 -0.0022470974 0.0005325605 -0.0036309746 -0.0036378878 -0.0014977949 0.0010673814 -0.0005797568 -0.0009972103 -0.001371217 0.0009012939 8.740968e-05 -0.00046646738 -0.004630489 0.0020999222 0.0014713926 -0.0029025404 -0.0014039512 -0.0028625487 -0.00059940456 -0.004516222 0.003864141 -0.0035287484 -0.0006400011 -0.0022429994 0.0043563778 -0.004651335 0.0006586081 -0.00284102 0.00089169206 0.0036544674 -0.0010888085 -0.002559094 -0.0013577151 -0.0046323566 -2.8353721e-05 0.004325666 0.0037892126 0.0046348437 0.0030679894 0.0040361225 0.0024878876 0.003070003 -0.0037256158 -0.002832533 0.0018234217 0.0008061259 -0.00041605046 -0.0021039539 0.0028346223 0.00054158445 0.00057457946 0.0019540547 -0.00026513665
significa 0.0006492048 0.0038477003 0.0030670417 -0.001881278 0.0024412347 0.0029685108 -0.002611997 0.0004516249 0.002237416 -0.0011578569 -0.000878064 0.0041435924 0.003295071 0.0028245007 0.002969896 -0.003808505 0.0010933238 -0.0033700985 0.0022393959 -0.0015841996 -0.0027013833 -0.003352647 0.0004387836 -0.002547185 0.0046875104 -0.0039123036 0.00037249544 -0.0017102772 -0.0042330404 0.00094862893 0.004391985 -0.0031080865 -0.0018974842 0.0036818422 0.003013302 0.0016157046 -2.4081643e-05 -0.0007243333 0.004014166 -0.0019319031 0.0026762197 -0.004216917 -0.0022498635 0.004961577 0.00044716758 0.0035846152 -0.0018393882 0.0014139992 -0.0010994222 0.002937022 -0.0022196877 0.0043018763 0.0020606192 0.0047950963 -0.0005385811 0.0037890025 0.004311015 -0.0005545554 4.142389e-07 -0.0026450676 -0.0038663445 0.0035356912 0.0013938338 -0.0024460505 0.0013659918 -0.0005885636 -0.002318464 0.004389401 0.0013644006 -0.0036100324 0.0024673257 0.0019819953 0.0011015247 0.0033450997 0.002128904 -0.0027832265 -0.00045534628 -0.00046307928 0.0020952208 -0.0038508142 0.0005629139 0.0029463072 0.0030559958 0.0019136323 -0.0029028277 -0.004985248 -0.0032871715 0.0019804079 0.0033754052 0.003186261 0.001502286 0.0039116475 0.0016940185 0.0048043323 -0.0027800726 -0.00010240337 -0.00016619817 -0.0019351324 7.913057e-05 0.0031374986
